{
  "network" : {
    "class" : "SAI.BasicTrainableFeedForwardNetwork",
    "hidden layers" : [
      {
        "momentum" : 0.5,
        "class" : "SAI.PerceptronHiddenLayer",
        "weights" : [
          0.11881,
          -0.01175053,
          0.08455173,
          -0.003058597,
          0.0851588,
          -0.06122977,
          0.06474118,
          0.1470541,
          0.08670469,
          -0.03465217,
          0.05832477,
          -0.07265444,
          -0.023876,
          0.06330612,
          -0.09201407,
          0.05781598,
          0.05880975,
          0.058766,
          0.3092976,
          1.390318,
          1.133233,
          1.115923,
          0.9065037,
          0.4988176,
          1.147706,
          0.4452496,
          -0.07087557,
          0.04303148,
          -0.122169,
          -0.0009777315,
          0.1547617,
          -0.4246738,
          -0.2649143,
          -1.060382,
          0.1831555,
          1.966613,
          -2.304457,
          -1.839712,
          0.04249677,
          -0.3652434,
          -0.3139409,
          0.09319917,
          -0.01621023,
          0.2359095,
          -0.1491534,
          -0.2906889,
          -0.4159201,
          -0.9011278,
          -2.927854,
          4.273628,
          -0.3999772,
          -1.654759,
          -3.791625,
          -4.089646,
          -0.8186112,
          -0.2305759,
          -0.009145065,
          0.1350145,
          1.366881,
          -0.3363013,
          -0.3936518,
          -1.059474,
          -2.225865,
          2.438846,
          -1.736699,
          -0.08560318,
          -2.112913,
          -2.025561,
          -1.630899,
          -0.02854244,
          0.01152587,
          1.064137,
          -0.8196457,
          -1.519241,
          -1.148333,
          -0.0172008,
          -0.1698711,
          3.092914,
          -1.781006,
          -1.891935,
          1.091165,
          -0.2609145,
          -2.055563,
          -0.1561803,
          -0.04684396,
          0.6128436,
          -0.6814446,
          -0.1163815,
          1.771096,
          0.2502451,
          -1.49255,
          0.01333067,
          2.257421,
          -0.6655543,
          2.15251,
          -0.9682639,
          -1.923627,
          -0.1138087,
          -0.03287559,
          0.1321267,
          -1.84494,
          1.060974,
          1.599617,
          0.01139877,
          0.3805887,
          0.3415765,
          0.09728169,
          -0.09639906,
          1.235264,
          0.08353654,
          0.2059347,
          -0.0004287669,
          0.1240038,
          -0.6539239,
          -1.827846,
          1.99853,
          1.366342,
          0.2179899,
          -2.461766,
          2.567451,
          1.474783,
          -1.040005,
          -0.3232754,
          -0.6394392,
          -0.8955258,
          0.1551098,
          0.02642004,
          -0.5242955,
          -1.057518,
          -0.4884934,
          -2.065933,
          -1.7153,
          0.5304689,
          0.3584893,
          0.8541837,
          1.206293,
          0.5854265,
          0.9452904,
          -0.5053527,
          0.1011454,
          -0.0724341,
          -0.08341802,
          -1.540714,
          -4.03438,
          -2.407408,
          -0.6613531,
          0.2005016,
          0.3802434,
          0.6574848,
          1.586921,
          -1.208088,
          -0.8324136,
          -0.0556537,
          -0.04311921,
          -0.007998496,
          -0.136049,
          -0.1065754,
          -1.851247,
          -1.120082,
          0.4230048,
          -0.973421,
          -0.8100552,
          -0.5589488,
          0.6090223,
          -2.79934,
          -1.061177,
          0.05883674,
          -0.03513197,
          0.07384872,
          0.09525757,
          0.2419068,
          1.144734,
          0.1809475,
          0.201582,
          0.8506846,
          1.049204,
          -0.8398885,
          -0.6469789,
          0.9128116,
          -0.01268202,
          0.03391296,
          0.07680596,
          0.005825028,
          -0.07167675,
          0.2238197,
          0.2406683,
          0.3827536,
          1.30372,
          1.306267,
          1.240962,
          0.5034933,
          0.1199436,
          0.1154005,
          0.220669,
          0.08494736,
          0.2612663,
          0.06658484,
          -0.05787414,
          -0.1185914,
          -0.06411301,
          0.05910928,
          -0.0672606,
          0.06194393,
          -0.03978784,
          0.01120761,
          0.03323011,
          0.03284844,
          -0.06609157,
          -0.04740376,
          0.05709906,
          0.03227669,
          0.0626934,
          0.05921903,
          0.1859151,
          0.3677787,
          1.062408,
          0.4729407,
          0.282507,
          0.4521155,
          0.2354897,
          0.3047343,
          0.1400096,
          0.01216278,
          0.02369089,
          -0.1192605,
          0.08433364,
          0.4787512,
          1.395157,
          1.994892,
          1.899642,
          0.07312588,
          -0.5000015,
          0.6767086,
          3.031323,
          3.808281,
          2.947034,
          1.080666,
          0.06400912,
          0.1278652,
          -0.03696268,
          0.8543021,
          1.081447,
          1.273989,
          -0.2621012,
          -0.04817987,
          2.516642,
          3.421588,
          2.076517,
          -0.7238435,
          1.720949,
          2.534723,
          0.2948311,
          0.1877527,
          -0.09121405,
          0.7427872,
          0.4366373,
          0.6966567,
          -0.2177627,
          0.08855173,
          -3.581722,
          -2.721648,
          -0.03107139,
          -0.7875257,
          -2.95447,
          -0.5396543,
          0.0521816,
          -0.1177153,
          -0.6159242,
          0.5698816,
          -0.375593,
          0.4404938,
          -0.4810995,
          -1.078915,
          -1.242682,
          -0.9847434,
          -1.472597,
          0.1822485,
          -1.517338,
          -1.22548,
          -0.06484444,
          -0.03677937,
          -0.1406413,
          -0.1749082,
          -2.512232,
          -0.9199778,
          -1.062874,
          -0.6335565,
          1.121126,
          1.326646,
          1.984512,
          1.596173,
          -1.492975,
          -0.2677922,
          -0.3044523,
          -0.08851744,
          0.02601307,
          0.06460604,
          -1.291645,
          -0.3277437,
          -0.4168622,
          -0.3728727,
          1.324449,
          -0.1705867,
          1.523546,
          2.377073,
          -0.8429492,
          -0.8297609,
          -0.1874029,
          -0.002897182,
          0.1137569,
          -1.180576,
          -1.385485,
          0.5181494,
          -1.681042,
          0.9673797,
          2.141932,
          2.400556,
          0.9711569,
          0.3664651,
          -0.5238045,
          -0.2904211,
          -0.2899038,
          -0.1077295,
          0.1745818,
          -0.6203303,
          -1.677839,
          -0.7323501,
          -0.1927152,
          0.2900792,
          1.826803,
          0.303582,
          0.07047294,
          -0.07179158,
          -0.5546684,
          -0.2457208,
          -0.1434128,
          0.07959662,
          0.1832256,
          0.1663213,
          -1.590756,
          -0.05538954,
          2.142481,
          -1.284045,
          1.820312,
          2.348753,
          0.9780878,
          1.111236,
          0.9577484,
          -0.40639,
          0.07278134,
          -0.02206668,
          0.004668238,
          0.6606958,
          0.4430681,
          -0.9259759,
          0.8404592,
          -2.109826,
          -0.7721854,
          -1.30894,
          0.2183297,
          1.324951,
          0.2117754,
          -0.239918,
          -0.09742375,
          -0.09497257,
          0.07620687,
          0.2133458,
          0.7345037,
          -0.1183212,
          -0.6105647,
          0.8979406,
          3.737069,
          -0.1867323,
          0.1687564,
          -0.9095425,
          -0.2746326,
          -0.1853489,
          -0.02559293,
          -0.0600829,
          0.009943999,
          0.04254384,
          0.0146642,
          0.2061501,
          -0.328743,
          -0.1640536,
          1.283115,
          0.1967669,
          0.06726927,
          -0.1392816,
          -0.2390953,
          -0.280494,
          -0.3515686,
          0.1081677,
          0.08040629,
          -0.05004563,
          -0.03413484,
          -0.07196324,
          0.07364687,
          -0.03772323,
          0.2543762,
          0.02040895,
          0.01496457,
          0.08721633,
          0.05326411,
          -0.05473949,
          0.01567163,
          0.01142994,
          0.05334458,
          0.0251079,
          0.133434,
          0.01612836,
          -0.3656561,
          0.7106609,
          1.892442,
          0.3778481,
          0.6587622,
          0.3863169,
          0.5019687,
          0.1405091,
          -0.1043073,
          0.08674631,
          -0.02719309,
          0.2933312,
          0.5984911,
          1.367263,
          -2.243242,
          -0.1157552,
          0.4756728,
          -1.344295,
          0.1891525,
          1.212774,
          0.8063858,
          0.1268254,
          0.01434301,
          -0.05192816,
          -0.05032671,
          -1.083624,
          0.236737,
          0.9142451,
          -1.152459,
          0.45988,
          -1.954115,
          -1.29657,
          0.8545191,
          0.05253772,
          0.3420532,
          0.4282493,
          0.3275441,
          0.1261736,
          0.5596257,
          1.338915,
          0.8935178,
          0.3005276,
          -1.523904,
          0.2709255,
          0.3972912,
          -1.44965,
          -1.418071,
          0.9402162,
          -1.673091,
          -0.8777809,
          0.135813,
          0.04446031,
          0.2506548,
          1.363492,
          0.7829031,
          -0.700819,
          -0.8206686,
          -0.86739,
          0.1419655,
          1.446522,
          -1.487036,
          -0.111096,
          -0.8827441,
          -1.551541,
          -0.1777825,
          0.1208955,
          0.2706961,
          -0.08472253,
          0.921823,
          -0.2613201,
          0.0003511429,
          -3.04355,
          -2.301858,
          0.2641187,
          1.526915,
          0.09408358,
          1.162321,
          -0.07810107,
          -0.1542255,
          -0.06277876,
          0.00541086,
          -0.6257616,
          1.714422,
          -0.3460771,
          -1.164828,
          -0.657616,
          3.20351,
          0.2981607,
          0.01384726,
          0.218416,
          1.521234,
          -0.04563075,
          0.01616148,
          0.04862725,
          0.009236454,
          0.2287535,
          0.6482432,
          -5.161227,
          -3.496677,
          4.590847,
          0.8034936,
          0.2093755,
          0.114656,
          -0.3199771,
          -1.345138,
          0.6072795,
          0.1229159,
          0.1017049,
          -0.3703476,
          -1.908997,
          -3.696892,
          -3.654739,
          0.1096707,
          2.319137,
          1.535896,
          1.052288,
          -0.07999939,
          0.2230182,
          -1.735428,
          0.4809388,
          0.08426108,
          -0.07597429,
          -0.5214933,
          -1.656365,
          -2.120034,
          0.4558666,
          1.106035,
          0.3332683,
          0.6876984,
          1.300588,
          2.189732,
          -1.992793,
          -0.6298957,
          0.7384501,
          -0.02261306,
          -0.0335318,
          -0.449679,
          -0.8317229,
          -2.382135,
          -1.008887,
          -2.015946,
          -2.052727,
          1.164337,
          0.1217959,
          -0.8264388,
          1.320843,
          0.5974097,
          0.1027177,
          0.009079542,
          -0.03430728,
          0.04409289,
          -0.7989326,
          -0.9581515,
          -0.9920129,
          1.952929,
          2.091193,
          -0.1544911,
          -0.5109705,
          0.2795557,
          -0.06748857,
          0.2114413,
          0.1073761,
          0.002854721,
          -0.01858379,
          0.008769807,
          -0.02450768,
          0.002038682,
          -0.285575,
          -0.2124306,
          -0.1049334,
          -0.08369603,
          -1.00359,
          -0.2890348,
          0.1518556,
          0.1848481,
          0.04172733,
          -0.01320425,
          0.001524463,
          0.03641471,
          0.03535581,
          -0.07594104,
          0.001473705,
          -0.02057268,
          0.1720358,
          0.2023333,
          -0.02806492,
          0.1704523,
          0.163784,
          -0.1168829,
          0.006183867,
          -0.07393311,
          0.0562081,
          0.06868625,
          0.004396209,
          0.2026595,
          -0.0369619,
          -0.01331634,
          2.222819,
          -0.1806687,
          0.764944,
          1.228118,
          0.5844597,
          0.39751,
          0.1242765,
          0.07525028,
          -0.06172214,
          -0.1909107,
          -0.141118,
          -0.5176337,
          0.9688425,
          -0.5372512,
          0.5143009,
          -0.9816368,
          2.112971,
          1.26097,
          -0.8503893,
          -0.02498199,
          -0.2462813,
          0.005547845,
          0.05357122,
          -0.09996551,
          0.003604154,
          -0.865925,
          -0.4489177,
          -0.1513172,
          1.121383,
          0.6944693,
          0.6563588,
          -2.2259,
          -1.129881,
          0.9616386,
          1.049531,
          -0.1197473,
          0.04252857,
          0.1539047,
          0.4515593,
          -0.9305677,
          -2.873742,
          0.1404514,
          -0.9539623,
          -0.5673716,
          0.07982885,
          -0.6672778,
          -1.050075,
          0.210328,
          1.667357,
          -0.1290872,
          0.08027269,
          0.4275062,
          -0.8575029,
          -0.05758448,
          -0.6689166,
          -1.971804,
          1.6229,
          1.725513,
          -3.221065,
          -1.267017,
          -0.6101139,
          0.504961,
          1.124414,
          0.03551895,
          -0.05948599,
          0.2028945,
          0.5171392,
          2.98388,
          2.279488,
          2.881805,
          4.428402,
          -3.434179,
          -2.624191,
          -0.3650359,
          -2.879937,
          2.606615,
          0.07477623,
          0.0750109,
          -0.02595379,
          -0.4551204,
          0.6089148,
          3.324429,
          -0.3700897,
          2.548914,
          -1.152908,
          -2.588733,
          -4.851329,
          -2.185423,
          0.3311899,
          4.17025,
          1.956481,
          -0.1631372,
          0.1112312,
          0.008697377,
          0.2589179,
          -0.5698984,
          -2.393985,
          -1.922171,
          -3.737128,
          -1.93365,
          -0.01327647,
          0.7927886,
          0.8386086,
          0.6161659,
          0.4644386,
          -0.1289109,
          0.04069,
          0.07142586,
          0.5287081,
          2.264425,
          1.69966,
          1.551274,
          0.9314134,
          1.154359,
          1.452015,
          0.3945977,
          1.807193,
          0.673042,
          -0.06358653,
          0.01748809,
          0.02022541,
          -0.7235434,
          -1.598364,
          -0.1808348,
          0.06590602,
          1.826408,
          1.759027,
          -0.9744714,
          0.8656502,
          1.57021,
          -1.11624,
          -0.1824068,
          0.3715886,
          -0.1161345,
          -0.04033375,
          -0.1152608,
          -1.320924,
          -1.94531,
          0.3284198,
          0.6405188,
          0.5540164,
          -0.02627815,
          0.756604,
          -1.043329,
          -1.174783,
          -0.4487453,
          0.1862983,
          0.006042513,
          -0.08963628,
          0.1166914,
          -0.1028083,
          -0.04054353,
          0.7052492,
          -0.1675307,
          1.358684,
          -0.5543633,
          -2.00228,
          -0.7607796,
          -0.0116335,
          0.1271406,
          0.05199888,
          0.03463759,
          0.09631729,
          -0.05650051,
          0.0194707,
          -0.08701229,
          -0.1042247,
          0.2405688,
          0.0452068,
          -0.2619494,
          -0.2401395,
          -0.2740987,
          0.009626142,
          0.07108982,
          -0.004863495,
          0.1005082,
          -0.0488443,
          -0.01683065,
          -0.05704898,
          0.03079816,
          0.004206525,
          0.06777598,
          0.09337674,
          0.2884751,
          0.0673066,
          -0.04639333,
          -0.05689966,
          0.01111485,
          0.03915241,
          -0.1046796,
          0.02078687,
          0.06638733,
          0.09961916,
          0.06895345,
          -0.07758761,
          -0.3733034,
          -0.8326598,
          -0.2583735,
          -0.278966,
          -0.2414033,
          -0.05907935,
          -0.1220251,
          0.002899817,
          0.01245317,
          -0.008829056,
          0.1106614,
          -0.0272765,
          0.01511121,
          -0.6729949,
          -0.2155499,
          0.5028899,
          -0.5982107,
          -0.8212,
          -1.156734,
          -0.5717621,
          -1.151767,
          -0.04859235,
          0.07079683,
          -0.06972431,
          0.1735254,
          -0.06608319,
          -1.340921,
          0.8667707,
          1.142951,
          -0.03940833,
          0.1640334,
          1.631459,
          1.44953,
          0.9054463,
          -1.749747,
          -0.6299396,
          -0.01644817,
          -0.08921568,
          0.1482471,
          -0.3256321,
          0.8748859,
          0.6127312,
          2.001737,
          2.599796,
          1.914334,
          0.1550034,
          0.7781758,
          0.07606445,
          0.7581288,
          -0.5619057,
          0.2965293,
          -0.001503555,
          0.2237605,
          1.068171,
          3.006618,
          2.933373,
          1.837956,
          1.912121,
          -0.1160107,
          1.858619,
          0.1437039,
          0.133006,
          1.355946,
          0.469991,
          0.2842593,
          -0.1053066,
          0.06894269,
          1.63083,
          -0.1991395,
          -0.4547963,
          -3.654459,
          -3.606238,
          -0.6666647,
          0.0518393,
          1.231098,
          1.300943,
          -1.007489,
          -0.3711244,
          0.3321486,
          -0.107238,
          -0.1723063,
          -1.7952,
          -3.547087,
          -5.211724,
          -2.751657,
          0.1424966,
          1.388162,
          -1.503477,
          -1.163269,
          -1.893828,
          -2.864959,
          -1.036539,
          0.06252333,
          0.02365774,
          -0.3162806,
          -2.078457,
          -4.524331,
          -0.9138309,
          1.525559,
          1.297581,
          -0.4535831,
          0.7732036,
          -1.162353,
          -0.6348368,
          -0.3121098,
          -0.4582123,
          0.1894123,
          0.03998341,
          -0.4834919,
          -2.486208,
          -1.267889,
          2.84217,
          0.2279088,
          0.9160317,
          -1.259499,
          -0.005689872,
          1.172074,
          -0.6114486,
          0.6946154,
          -0.1083759,
          0.007800994,
          -0.03529309,
          0.001285655,
          -0.8189228,
          0.342868,
          -1.300878,
          -1.05045,
          -1.777324,
          0.9494032,
          -2.211987,
          1.216382,
          0.3553016,
          -0.08166645,
          0.1494153,
          -0.1877835,
          0.1218679,
          -0.1406362,
          -0.5876387,
          0.4696256,
          0.6834624,
          -0.5257091,
          1.102389,
          -0.6347971,
          2.444206,
          0.6822553,
          -0.07200391,
          2.407389,
          0.6784251,
          0.02013706,
          -0.06695238,
          -0.1167853,
          -0.1004545,
          1.554912,
          3.329261,
          2.730503,
          0.9096513,
          1.525832,
          2.753688,
          0.7113748,
          1.116431,
          0.9615599,
          0.1190598,
          -0.01306255,
          0.07036564,
          -0.08335827,
          0.2074932,
          0.3950483,
          0.8161441,
          1.174733,
          1.522329,
          1.888763,
          1.319121,
          0.4433917,
          0.4873711,
          0.3859388,
          0.5181647,
          0.4168994,
          0.02358587,
          -0.05148853,
          -0.01577249,
          -0.04259513,
          0.08850609,
          -0.002234943,
          0.0880881,
          -0.1053184,
          0.02622546,
          0.07183928,
          0.1206671,
          0.0170177,
          -0.00403122,
          -0.09162553,
          0.1207511,
          0.0004081315,
          0.08083943,
          0.08248474,
          -0.2382121,
          -0.8747368,
          -0.5802568,
          -0.06380488,
          1.008588,
          1.197873,
          0.6104169,
          0.06728586,
          0.2212587,
          0.0709492,
          0.03765232,
          -0.1990315,
          -0.06967404,
          -0.6371403,
          -1.725992,
          -1.889458,
          -0.5066975,
          -0.9652258,
          -1.874623,
          0.949493,
          0.3558375,
          1.300243,
          0.3088354,
          0.2035356,
          0.03423199,
          0.02475323,
          -0.3297758,
          -1.281416,
          -2.974105,
          -3.310296,
          0.004892966,
          0.2637853,
          -0.9188762,
          -0.1777891,
          0.0368026,
          1.643579,
          0.6000343,
          0.4595995,
          0.04494182,
          -0.07841662,
          -0.5198213,
          -1.463474,
          -3.236291,
          -2.021092,
          1.674933,
          -0.06198898,
          -1.011584,
          0.3600343,
          1.583268,
          2.309598,
          1.719113,
          0.2462526,
          -0.003830687,
          -0.3393914,
          -1.300578,
          -2.419523,
          -1.402684,
          0.9923422,
          -0.111544,
          0.9202025,
          -2.686039,
          -5.363328,
          -2.829079,
          -0.8409442,
          0.183316,
          0.02131173,
          0.008980404,
          -0.1228903,
          -0.9830629,
          -1.396936,
          -2.495136,
          -0.1207521,
          2.414529,
          0.219607,
          2.076791,
          -2.172341,
          -2.900412,
          -1.855447,
          -0.7587649,
          -0.2197044,
          0.07877602,
          0.006962888,
          -0.4433172,
          -1.633889,
          -0.7138604,
          2.459394,
          0.09200696,
          -1.277396,
          -0.1427175,
          1.027781,
          -1.037626,
          -1.851454,
          -0.8403996,
          -0.002452817,
          0.09011631,
          0.009239598,
          0.4290794,
          -1.929471,
          -0.8620723,
          0.3538629,
          0.981654,
          0.6236371,
          -0.7440348,
          -0.2009367,
          -0.535706,
          -0.7951014,
          -0.8231086,
          -0.2228926,
          -0.1325314,
          -0.164062,
          0.3516344,
          -0.5735993,
          -2.685862,
          -0.9733458,
          0.2962206,
          0.03729429,
          -0.6670476,
          -0.9948958,
          1.339849,
          -0.228924,
          -0.4566206,
          -0.1106873,
          -0.08934531,
          -0.07667929,
          -0.1318336,
          -0.6883594,
          1.06778,
          -0.2323038,
          -0.9168114,
          0.566349,
          0.08880489,
          0.9860264,
          2.56499,
          0.2156095,
          0.004358298,
          0.005926959,
          -0.1088087,
          0.09100231,
          -0.0263626,
          -2.385116,
          0.9044722,
          0.4169113,
          0.9214216,
          0.06044653,
          0.254618,
          -0.5432378,
          -0.1437329,
          0.004941534,
          0.01380965,
          0.0433467,
          0.03564841,
          -0.1147726,
          0.1671226,
          -0.5628672,
          -0.5996169,
          -0.7466692,
          -0.4576233,
          -0.9458925,
          0.4812376,
          -0.4367138,
          -0.1273223,
          0.2170134,
          -0.09416652,
          0.09057362,
          -0.01434691,
          0.06449292,
          -0.07582173,
          0.09140161,
          0.1114966,
          0.03589058,
          0.3274356,
          0.357801,
          0.0750768,
          -0.021172,
          0.07271558,
          -0.1312541,
          -0.01239929,
          -0.09013522,
          -0.09197092,
          -0.05286264,
          -0.1216841,
          0.05399396,
          -0.05761566,
          -0.1081707,
          -0.124495,
          0.04840415,
          -0.1190289,
          0.1013454,
          -0.008216118,
          0.07389337,
          -0.05302833,
          0.03334373,
          -0.07365234,
          -0.08792798,
          0.03797462,
          0.005557361,
          -0.08110755,
          -0.309305,
          -0.04354431,
          -0.7011027,
          -0.5121703,
          0.12732,
          -0.2243587,
          -0.145471,
          0.09827485,
          -0.08222746,
          0.02228866,
          0.1251561,
          0.2363878,
          0.5299696,
          0.8270795,
          -1.814807,
          -2.766515,
          -0.6700187,
          -0.408665,
          -0.3673749,
          -0.7725384,
          0.03419634,
          -0.1669943,
          -0.1148839,
          0.08975752,
          0.06401284,
          0.6525912,
          0.6485015,
          2.123559,
          1.648085,
          1.719723,
          0.4172675,
          0.4170351,
          -0.6419305,
          0.06732767,
          -0.690244,
          1.378486,
          0.1023032,
          -0.059099,
          0.3997506,
          1.052986,
          0.7287988,
          2.060088,
          0.2439635,
          0.806111,
          0.1452025,
          1.687648,
          1.136688,
          0.03666333,
          1.963969,
          2.409003,
          0.1925236,
          -0.07228662,
          0.5195283,
          0.2686616,
          0.6093196,
          -0.7166063,
          -1.042669,
          -1.624281,
          1.41266,
          1.070521,
          1.293136,
          1.27941,
          0.1814295,
          0.2064442,
          0.4148502,
          0.06680975,
          0.2698382,
          -0.5966663,
          0.4567268,
          -0.4149458,
          0.2494345,
          0.05417776,
          2.57526,
          0.3275815,
          0.6585112,
          1.66178,
          -0.6698964,
          -0.7483694,
          -0.0264418,
          -0.06054235,
          0.1883816,
          -0.9333572,
          -1.617926,
          -0.7665911,
          0.8854672,
          1.948143,
          1.280208,
          2.136194,
          2.178049,
          0.2955935,
          -1.612182,
          -1.452452,
          0.03581804,
          -0.02588835,
          0.3545663,
          -1.005828,
          -3.904538,
          -4.429218,
          -2.407031,
          0.02495423,
          -0.4062319,
          -0.5404532,
          -0.7430544,
          -0.2561065,
          -1.819295,
          -1.259088,
          0.01803271,
          -0.1169179,
          0.9427303,
          -0.5650986,
          -2.4506,
          -4.048431,
          -4.292906,
          -4.095577,
          -1.996888,
          -2.471135,
          -2.714812,
          -0.5755365,
          -1.959475,
          -0.9735277,
          0.01345715,
          0.01014725,
          0.5731655,
          -0.3911911,
          0.3072679,
          -0.5719578,
          -0.0413153,
          -0.8642458,
          -1.658313,
          -1.06073,
          -2.242006,
          -1.628587,
          -1.734791,
          -0.5350071,
          0.1068145,
          0.08245434,
          0.1347256,
          0.642994,
          1.145678,
          -0.4062524,
          -1.35488,
          0.9726872,
          -0.9970731,
          -1.437576,
          0.1841316,
          -2.517009,
          -0.5615239,
          0.08977343,
          -0.001492401,
          0.1229506,
          0.03870467,
          0.9165155,
          1.546721,
          1.188398,
          0.3947629,
          -1.378516,
          -1.323195,
          0.8383775,
          -0.6290652,
          0.7611778,
          0.4007241,
          0.00392782,
          -0.1079635,
          -0.08433921,
          0.05516201,
          0.05427114,
          0.0810964,
          0.1840155,
          0.1083012,
          0.4664098,
          1.627527,
          1.083129,
          0.03657241,
          -0.09477082,
          -0.1152456,
          -0.1449021,
          -0.07870713,
          0.05621152,
          0.112969,
          0.007078682,
          0.08127306,
          -0.02714302,
          -0.009966291,
          -0.145899,
          -0.02705074,
          -0.06577626,
          0.009143074,
          -0.08360419,
          0.119551,
          0.0745568,
          -0.09658639,
          -0.04015613,
          -0.08217902,
          0.005492348,
          0.01558855,
          0.03382414,
          -0.3673816,
          -0.8712505,
          -0.3381881,
          0.2251696,
          0.2082915,
          0.1327631,
          -0.06728934,
          -0.001816435,
          -0.07409941,
          0.03867347,
          0.04012139,
          -0.1202873,
          -0.4282185,
          -2.249965,
          -3.386793,
          -1.500354,
          -1.041645,
          -3.43214,
          -0.6253925,
          0.1985818,
          0.05803487,
          0.8196902,
          0.08024345,
          -0.1132804,
          0.2127153,
          0.03012278,
          -0.3135537,
          -3.281927,
          -3.429918,
          -2.994513,
          -1.046934,
          0.5200521,
          2.141184,
          2.394316,
          0.2683726,
          1.459387,
          0.09817646,
          -0.1301896,
          -0.2218475,
          -0.5132962,
          0.3480999,
          -0.4227146,
          1.515457,
          0.1225621,
          -0.3271167,
          1.554991,
          -0.1860712,
          0.5650768,
          1.081605,
          0.3853501,
          0.2020923,
          0.06243893,
          0.009481017,
          0.6577943,
          -0.07321919,
          1.196243,
          3.304504,
          7.182171,
          1.243868,
          -1.178576,
          0.8769443,
          -0.008066723,
          0.1449873,
          0.1013239,
          0.2752352,
          0.1099559,
          0.1966033,
          1.714928,
          -0.2169703,
          -1.104954,
          -2.034832,
          -3.065682,
          0.5638863,
          1.020366,
          -0.5342307,
          1.561127,
          -1.508866,
          0.1336218,
          0.2686489,
          -0.07983063,
          -0.2328332,
          0.2285328,
          -2.342609,
          -2.514304,
          -2.656547,
          -1.529836,
          -0.4032827,
          0.6706231,
          -1.56434,
          1.783274,
          -3.864818,
          -0.5459187,
          0.1483995,
          -0.0753338,
          -0.112303,
          -1.583776,
          -0.2313968,
          -0.6277381,
          -0.2968318,
          0.5845326,
          -2.199458,
          -0.9910268,
          0.3149246,
          -1.367252,
          -2.994617,
          -0.9350893,
          0.02882084,
          0.09008641,
          -0.3609886,
          -1.328869,
          0.8013761,
          0.6331749,
          -3.192618,
          -0.3206065,
          0.1177722,
          0.07147719,
          -0.08659087,
          -0.960006,
          0.5615557,
          -0.7191831,
          -0.1297735,
          -0.104021,
          -0.5263039,
          -0.5403665,
          -2.080827,
          0.2550665,
          0.5163237,
          0.4180028,
          0.1886416,
          0.6125187,
          1.397677,
          1.596108,
          0.6473214,
          0.2854747,
          0.01770107,
          0.1227798,
          -0.1213108,
          0.4643284,
          -0.2449374,
          -0.08088107,
          -0.5571065,
          -0.2531841,
          0.9857233,
          -0.2943907,
          -0.586301,
          0.4429184,
          1.382834,
          0.5075552,
          0.05216717,
          0.01388182,
          0.02660714,
          0.6503035,
          1.859206,
          2.117647,
          1.57812,
          1.979635,
          0.5827911,
          2.258512,
          2.085393,
          0.3528979,
          0.01247693,
          0.05813428,
          -0.06753761,
          0.04944266,
          0.1121533,
          0.2455209,
          0.353502,
          0.4777754,
          0.989776,
          1.685071,
          0.8935744,
          0.7286103,
          0.5624349,
          0.2827551,
          0.1699059,
          0.2522226,
          0.1509,
          0.01622361,
          0.06783244,
          0.05066032,
          -0.09668655,
          0.09826335,
          -0.02546396,
          -0.02363967,
          0.3264757,
          0.03036499,
          0.06603096,
          0.01063686,
          0.08305508,
          0.04620386,
          0.08233808,
          0.09971653,
          -0.102624,
          0.03442455,
          -0.004894369,
          0.1995518,
          0.2401889,
          1.262088,
          2.03863,
          1.870665,
          -0.5068465,
          -0.627894,
          -0.126998,
          0.1855581,
          -0.08700806,
          0.1074927,
          0.05489974,
          -0.003311508,
          0.8019525,
          1.267504,
          1.627518,
          1.252698,
          3.251465,
          2.715207,
          1.536044,
          -0.7362402,
          -0.3613724,
          0.3374472,
          -0.06156892,
          0.01598043,
          0.08127244,
          0.4735492,
          0.5651628,
          0.1070864,
          -0.5106174,
          1.093065,
          3.911074,
          1.268491,
          1.810113,
          1.742151,
          0.05101494,
          -0.7276661,
          -0.3343204,
          -0.009694035,
          0.2002437,
          0.4610904,
          -1.316042,
          -0.8609995,
          -1.252772,
          -2.424738,
          2.911951,
          4.78186,
          2.514005,
          2.329172,
          1.253906,
          -0.5118148,
          0.05058343,
          0.07742681,
          0.02177591,
          -1.492812,
          -1.935768,
          -2.325793,
          -1.632038,
          -2.798615,
          -3.027615,
          -1.064626,
          -0.02441814,
          0.7512705,
          1.505241,
          0.1830043,
          -0.02559512,
          0.01744478,
          -0.1845289,
          -1.45865,
          -0.6659631,
          -2.064675,
          -0.984161,
          -2.402439,
          -0.3993925,
          -1.718516,
          0.4328042,
          -0.3502848,
          -1.053577,
          -0.742501,
          0.02355595,
          0.04260587,
          -0.1990965,
          1.779033,
          0.6856588,
          -0.852032,
          -0.3286577,
          0.02061397,
          2.185919,
          -1.532507,
          -0.1435183,
          0.8795119,
          -0.7132613,
          -0.5355973,
          0.1388059,
          -0.0598042,
          -0.2603218,
          1.792334,
          0.1375592,
          -0.398755,
          -0.6345041,
          -3.07207,
          2.460614,
          1.474089,
          -4.350672,
          -1.222531,
          -0.7294689,
          -0.9242861,
          0.03136941,
          0.009728086,
          -0.3747026,
          -0.1912882,
          1.014973,
          -1.008812,
          -0.2215782,
          -0.9942789,
          -2.188051,
          -0.5266315,
          -0.4755331,
          0.8366681,
          1.09195,
          -0.4156561,
          0.05807891,
          -0.01104983,
          0.1261619,
          -0.7541665,
          -0.2634034,
          -0.353689,
          0.3812524,
          0.9657177,
          0.03989457,
          0.826553,
          0.3182614,
          -0.3533617,
          -0.9932476,
          -0.1784761,
          -0.08656152,
          0.0633797,
          -0.06062956,
          -0.7276618,
          -0.3950854,
          0.1999848,
          0.2619807,
          1.245044,
          1.901483,
          -1.929752,
          0.5312383,
          -1.967243,
          -1.254786,
          0.1361945,
          0.03994658,
          0.02811308,
          0.005349982,
          0.3023123,
          0.1422756,
          1.033371,
          -0.0294075,
          0.8039667,
          1.262877,
          0.6631401,
          1.077284,
          -0.09789052,
          0.07847102,
          0.024015,
          0.08919948,
          -0.0253535,
          -0.001781037,
          -0.04305752,
          0.1133167,
          0.5852064,
          0.804629,
          1.128173,
          0.2935293,
          0.6263688,
          0.2633756,
          0.1504174,
          0.1208444,
          -0.04538256,
          0.04182754,
          -0.01971085,
          -0.06814606,
          0.06415546,
          -0.07908665,
          0.01533888,
          0.09107518,
          0.0506832,
          0.09429145,
          0.03412467,
          -0.04075407,
          -0.04940904,
          -0.05343637,
          -0.03512166,
          -0.1168798,
          -0.04714445,
          -0.05273265,
          -0.1215666,
          -0.09461518,
          0.1235104,
          0.3161302,
          -0.08699224,
          0.3161788,
          0.6181436,
          0.3825095,
          0.3128234,
          -0.02952593,
          0.02438148,
          0.1140679,
          0.02537118,
          -0.07428419,
          0.07007802,
          -0.1599594,
          -0.1702272,
          -1.709207,
          -1.435716,
          -1.90647,
          -1.629729,
          0.9517974,
          0.4592299,
          0.5038287,
          -0.4703003,
          -0.02532241,
          -0.0705934,
          -0.2667585,
          -0.8405648,
          -1.922189,
          -2.106471,
          -1.694677,
          -1.26779,
          -1.830089,
          -0.3944369,
          -1.842573,
          -0.6224541,
          0.145131,
          -0.7510005,
          -0.1378708,
          0.07250647,
          -0.3909366,
          -2.440512,
          -1.538357,
          -1.694189,
          0.9756301,
          -1.189598,
          -0.2318133,
          -2.685383,
          -1.731506,
          -0.736993,
          -2.189442,
          -1.389562,
          -0.1895954,
          -0.03833727,
          -0.2369957,
          -1.006279,
          0.7340596,
          0.352378,
          1.339124,
          1.310392,
          2.043953,
          0.03728743,
          0.2330169,
          -0.8930658,
          -1.814831,
          -0.4274581,
          -0.1415224,
          0.04684234,
          0.1763879,
          1.612714,
          2.732642,
          0.2794232,
          0.4360052,
          0.4331174,
          2.226381,
          1.434119,
          0.01742486,
          -0.2091544,
          1.988891,
          0.1533853,
          -0.01579834,
          -0.1211019,
          -0.1230547,
          1.005568,
          2.733194,
          0.7856243,
          2.069817,
          2.989692,
          0.1694707,
          2.572406,
          0.9975556,
          1.285164,
          1.632274,
          0.4406933,
          0.008834095,
          -0.001909745,
          0.1815795,
          1.794635,
          2.760555,
          -0.3316413,
          1.187481,
          0.8222229,
          1.264907,
          -0.5137403,
          0.03257096,
          -0.2307776,
          0.3038203,
          -0.1147394,
          0.07395807,
          -0.03974472,
          0.4036844,
          1.223588,
          -0.3364245,
          1.993125,
          2.944174,
          3.686417,
          3.283134,
          -0.3112113,
          -1.134972,
          -1.692041,
          0.09603256,
          0.006695042,
          0.1133656,
          0.043973,
          0.1352645,
          0.01035281,
          -4.216227,
          -3.171667,
          -2.545805,
          -1.60404,
          -2.382604,
          -1.492305,
          -0.05753149,
          -0.6014193,
          -1.292928,
          0.09872371,
          0.002822924,
          0.02621259,
          0.02498232,
          0.2201155,
          -1.4084,
          -2.199918,
          -4.719463,
          -2.904151,
          -4.684166,
          -1.352271,
          -1.032856,
          -0.5854864,
          -0.7075479,
          0.1267268,
          0.0661478,
          -0.121643,
          -0.005751346,
          0.09681246,
          -0.1167911,
          1.000464,
          -0.1045222,
          -0.8813822,
          -0.7012654,
          1.202989,
          0.6969504,
          0.2135781,
          0.2949983,
          -0.09493963,
          0.01300769,
          -0.001937248,
          -0.05815489,
          -0.0735794,
          -0.06567124,
          0.009544986,
          -0.1686634,
          0.3327118,
          -0.3085378,
          0.07546596,
          0.0842922,
          -0.01389604,
          0.06568013,
          0.08743723,
          -0.1258357,
          0.05921981,
          0.05739044,
          -0.005137522,
          -0.03103976,
          0.04699535,
          -0.1624749,
          -0.162981,
          0.3270755,
          -0.03172166,
          -0.1183116,
          -0.1388887,
          -0.1553556,
          0.000820723,
          -0.08829963,
          0.06301752,
          0.05844043,
          -0.092703,
          -0.2465636,
          -0.01440458,
          0.07166618,
          0.5545754,
          2.656073,
          -0.2171317,
          -1.411103,
          -1.402204,
          -0.6381716,
          -0.1431858,
          0.06814229,
          -0.08591588,
          -0.05946543,
          -0.2389481,
          0.2821033,
          -1.320389,
          0.4343809,
          1.086988,
          -0.1907941,
          -0.3980942,
          -1.371934,
          -1.75452,
          0.1946182,
          0.502309,
          -0.03810496,
          0.0967949,
          -0.04721532,
          0.303498,
          1.199309,
          0.1698406,
          -0.4364339,
          0.01347681,
          2.178463,
          -1.959422,
          -0.6500988,
          0.4845683,
          1.18241,
          1.758841,
          0.2157289,
          0.07398613,
          0.2513714,
          0.8470913,
          0.4944679,
          0.1728273,
          1.575982,
          0.7933156,
          -1.123152,
          -0.8402463,
          0.9376181,
          0.4435022,
          1.873169,
          0.9206465,
          0.0440245,
          0.120825,
          0.1689301,
          0.9364158,
          1.198338,
          -0.8643484,
          -0.3722244,
          -1.80852,
          0.293159,
          1.641366,
          2.920802,
          1.105743,
          0.4257466,
          0.8678029,
          0.2481566,
          0.05587385,
          0.03301707,
          -0.9069378,
          -1.347222,
          0.0339198,
          -0.2202054,
          1.344652,
          1.231774,
          -1.408167,
          0.635542,
          -1.433662,
          -0.5313303,
          1.238612,
          0.345028,
          0.003813052,
          0.1556018,
          -2.244076,
          -1.456742,
          -0.8384377,
          1.98622,
          1.681706,
          2.420551,
          1.002532,
          0.3043953,
          -0.6960241,
          -1.275527,
          -0.2840179,
          0.5289076,
          -0.02734071,
          -0.0934182,
          -0.3962795,
          -2.324248,
          -4.400066,
          -1.230494,
          3.375256,
          2.342052,
          0.7966116,
          -0.4017078,
          -0.6289979,
          -0.5296652,
          0.8022617,
          0.2686377,
          -0.05257109,
          0.2342819,
          0.6580803,
          0.05001719,
          -0.861226,
          -2.845323,
          -2.511441,
          1.675857,
          1.441797,
          -1.049333,
          -1.318073,
          1.491051,
          0.8386328,
          0.2816977,
          -0.01569507,
          0.4390555,
          1.335087,
          3.428111,
          2.692808,
          0.8295006,
          -3.532034,
          -0.6948788,
          2.477671,
          0.991168,
          -0.4107195,
          -0.7583866,
          -0.5614048,
          0.09024383,
          -0.1175324,
          -0.01602124,
          0.9983164,
          -0.1139183,
          0.1398591,
          -2.21872,
          -2.121629,
          0.02775951,
          0.3589703,
          -0.1813072,
          0.583595,
          -1.072942,
          -0.5026953,
          -0.1600412,
          0.09892762,
          -0.1029452,
          -0.2456548,
          -0.9988171,
          0.08416151,
          -0.2241068,
          -2.272261,
          -1.19519,
          0.9488711,
          1.679911,
          0.2887075,
          -0.07700628,
          0.08001226,
          0.1087863,
          -0.05523533,
          0.05206116,
          0.06980917,
          0.04686119,
          -0.08196642,
          0.01105839,
          -0.1401413,
          -0.2862566,
          -0.1722678,
          0.08555078,
          -0.1920647,
          -0.085026,
          -0.03959954,
          -0.1047507,
          0.02190425,
          -0.07194564,
          -0.003654443,
          0.01310644,
          -0.07792257,
          0.02835061,
          0.05472681,
          -0.02012897,
          0.1023795,
          -0.03744797,
          -0.1138007,
          0.05621964,
          -0.002049961,
          -0.1066817,
          -0.05975157,
          0.01192502,
          -0.01430891,
          0.004981922,
          0.136651,
          0.1322322,
          0.6977958,
          1.649717,
          0.0008732699,
          0.6281095,
          0.122964,
          0.1536244,
          -0.001737211,
          0.01824657,
          -0.05938857,
          0.02913923,
          -0.5847661,
          -1.410031,
          -0.5027584,
          -0.2415721,
          0.1966007,
          2.029854,
          0.8000133,
          -0.1233048,
          1.353847,
          0.781934,
          0.245967,
          -0.1145804,
          0.02904652,
          -0.08497345,
          -1.257111,
          -2.305146,
          0.4909562,
          0.2798574,
          -0.2913116,
          1.75368,
          0.7401155,
          -0.4919044,
          -0.8591552,
          1.259276,
          1.265583,
          0.1002137,
          0.001751707,
          -0.09985859,
          -0.9797823,
          -1.175179,
          -2.019036,
          -0.7035682,
          -0.6312329,
          1.190667,
          -1.157736,
          -1.598871,
          2.26683,
          0.7444484,
          2.970308,
          0.2382497,
          -0.06455443,
          -0.4619209,
          -0.5359092,
          0.982199,
          0.48716,
          -0.665597,
          0.7988417,
          0.321835,
          -4.03862,
          -2.834715,
          1.909307,
          1.885838,
          1.501368,
          0.1633877,
          0.04135815,
          -0.2325932,
          -1.675743,
          1.138048,
          0.3988796,
          0.3601672,
          1.795615,
          0.8597177,
          -1.881114,
          0.2765942,
          -1.731981,
          1.90826,
          1.093414,
          -0.0712826,
          -0.08744171,
          -0.1315231,
          -1.458161,
          -0.6962905,
          0.1568713,
          0.4535339,
          0.5896086,
          -0.6965342,
          -1.949244,
          -3.428881,
          -1.208479,
          -0.0731145,
          0.09715265,
          -0.1300171,
          -0.1234455,
          0.1120206,
          -1.42147,
          -0.0498383,
          1.521215,
          0.2368602,
          -0.4501142,
          -3.269476,
          -2.048391,
          -0.3971015,
          -0.2917648,
          -0.7161379,
          0.3121079,
          -0.1239792,
          0.06862984,
          0.3332178,
          0.404817,
          1.658862,
          1.000808,
          3.408189,
          -0.8687932,
          -0.7657416,
          1.343636,
          1.462461,
          1.336363,
          0.4901569,
          0.1978042,
          -0.01821125,
          0.01138709,
          -0.1080198,
          1.080368,
          0.9502003,
          0.6437073,
          1.301921,
          -0.2301821,
          0.3419871,
          0.8605896,
          0.7037592,
          0.539826,
          0.02703967,
          0.2886938,
          -0.1163732,
          -0.02230319,
          0.03307769,
          0.2079237,
          -0.560429,
          1.129089,
          2.457327,
          1.027098,
          -0.6408696,
          -0.2794621,
          0.1817071,
          -1.484092,
          -0.09378263,
          0.0827051,
          0.06481272,
          -0.03431005,
          0.1055502,
          -1.048751,
          -1.906329,
          0.9070479,
          2.115519,
          3.617927,
          0.2073458,
          -0.2136543,
          -0.1202367,
          -0.2621937,
          -0.01042145,
          0.04146254,
          0.1111936,
          -0.007261977,
          0.0590927,
          0.04594671,
          -0.2306868,
          -0.2193613,
          -0.1040148,
          0.3106128,
          -0.001535615,
          0.04453914,
          -0.03906216,
          -0.01843201,
          -0.0939225,
          -0.06644993,
          0.03629678,
          -0.02585589,
          0.08537222,
          0.05095406,
          0.005767164,
          0.05225965,
          0.05141778,
          -0.1184435,
          0.183809,
          -0.0102655,
          -0.0595214,
          -0.08628145,
          0.0191088,
          0.01351963,
          -0.02453801,
          -0.001327591,
          -0.08260377,
          -0.02212565,
          -0.2389653,
          -0.8079968,
          -0.8690673,
          -0.7851732,
          -0.3784639,
          -1.375928,
          -0.7531875,
          -0.8246693,
          -0.2961328,
          -0.07256379,
          0.07509236,
          0.02475629,
          0.004029206,
          0.122227,
          0.03382571,
          -1.186376,
          0.9813198,
          2.296415,
          2.913639,
          3.824536,
          2.918725,
          0.806578,
          -0.07086443,
          -0.05708535,
          -0.03071308,
          -0.03506187,
          -0.2158876,
          -0.01233254,
          -0.4527687,
          -1.851461,
          0.2332349,
          -2.904897,
          -0.2411566,
          -2.08429,
          -1.643409,
          0.97603,
          2.314785,
          0.7658588,
          0.1756095,
          0.0780526,
          0.05311646,
          0.1369354,
          -0.6140846,
          1.346641,
          -2.319247,
          -3.450353,
          -0.03396591,
          -0.6837702,
          1.277201,
          0.5492611,
          1.51466,
          2.256375,
          0.2590344,
          -0.03642933,
          -1.07569,
          -0.6563348,
          -2.443226,
          -1.440506,
          0.931048,
          -3.743279,
          -1.040377,
          -1.144974,
          -1.403028,
          -0.8163763,
          0.6705214,
          0.6164185,
          -0.02700011,
          -0.0004434784,
          -0.863442,
          -0.7443107,
          0.7305591,
          0.5733281,
          1.364349,
          -0.9610432,
          -1.38206,
          -0.8750296,
          -1.826003,
          0.5466061,
          0.9737309,
          -0.4861304,
          -0.237814,
          -0.02220839,
          -0.2154994,
          -0.09216311,
          0.684441,
          1.487605,
          -0.777472,
          1.491642,
          1.289225,
          1.273333,
          -1.913317,
          0.5432848,
          1.510438,
          0.1856185,
          -0.09269927,
          -0.01808114,
          0.5381643,
          1.135993,
          0.2877631,
          -0.2432986,
          -0.9481166,
          0.774238,
          -0.09893798,
          -0.9829467,
          0.3120597,
          -0.4516813,
          1.178207,
          0.6722225,
          -0.02687478,
          -0.1361209,
          0.6182187,
          1.348315,
          1.617447,
          0.2630544,
          0.5866209,
          -1.02003,
          -0.8897101,
          -1.01954,
          -0.3352388,
          0.6717681,
          1.737238,
          0.2255536,
          -0.1084528,
          -0.1135379,
          0.03775785,
          1.477306,
          3.243391,
          0.1016448,
          2.208845,
          1.360973,
          2.656054,
          2.597983,
          4.452608,
          2.833598,
          2.286564,
          0.02243233,
          0.0090666,
          -0.02424145,
          0.3364488,
          1.278767,
          -0.277692,
          1.051725,
          2.590537,
          3.183007,
          3.524648,
          1.432965,
          4.954762,
          2.359288,
          0.3779175,
          -0.2092474,
          0.08966905,
          -0.012192,
          0.2256257,
          -0.6799558,
          -0.3837807,
          0.4252369,
          0.7648721,
          0.7058852,
          1.449379,
          -0.6935918,
          0.5781354,
          -2.662946,
          -0.7719636,
          -0.06635355,
          0.1001884,
          0.01138505,
          -0.09791287,
          0.2216661,
          0.09397332,
          -0.4683926,
          -1.285944,
          -0.5120973,
          -0.6885724,
          -1.016841,
          -0.5156196,
          -0.7148539,
          -0.7393622,
          -0.6878928,
          -0.748992,
          -0.03457318,
          -0.02061566,
          -0.04621972,
          0.1246718,
          0.01873319,
          -0.06704612,
          -0.0733391,
          0.1405512,
          0.1758838,
          0.08525406,
          0.1153604,
          0.06231629,
          -0.05384232,
          0.09702072,
          0.01836743,
          -0.07389385,
          0.03408056,
          0.05973649,
          0.1743397,
          1.081901,
          1.02658,
          -0.7590551,
          0.5042052,
          0.7747175,
          1.049504,
          0.3140952,
          0.06121229,
          0.09048045,
          -0.1143883,
          0.003224036,
          0.1819766,
          0.6462986,
          -1.104733,
          -0.2711105,
          -0.6187351,
          0.2784408,
          -0.2064108,
          -0.6926891,
          1.545207,
          0.5440233,
          0.313276,
          0.05100481,
          -0.03691192,
          -0.03135582,
          0.5998102,
          0.5432084,
          -0.210103,
          1.127697,
          1.34229,
          -1.462921,
          -2.175396,
          1.186428,
          -0.2642165,
          -0.2083204,
          -0.005011394,
          -0.02637412,
          -0.121748,
          -0.01521204,
          0.4849953,
          0.1936024,
          -0.2134422,
          -0.5838301,
          -0.912144,
          0.516984,
          1.149458,
          0.7222631,
          1.179762,
          -0.3396034,
          0.2790096,
          -0.3489023,
          0.02507159,
          0.2943507,
          0.04272,
          2.01886,
          0.9516354,
          2.182693,
          -0.04782464,
          -4.790181,
          0.4988388,
          0.9164162,
          -0.1366257,
          -0.2381807,
          -1.044598,
          -0.1652595,
          0.0197312,
          0.06571887,
          -1.242665,
          -0.5319954,
          -0.2163608,
          2.909124,
          0.1248604,
          -1.009068,
          0.6742625,
          0.7191009,
          -0.3891357,
          -1.552042,
          -1.390945,
          0.1152361,
          0.0001751954,
          0.04860036,
          0.4587004,
          -1.137213,
          0.7730954,
          -1.574678,
          1.188549,
          -0.7474205,
          -0.6072445,
          0.9303384,
          -0.5763888,
          -0.03335118,
          0.1183949,
          0.1278763,
          -0.04095859,
          -0.1661003,
          0.5468111,
          0.2009279,
          -1.530953,
          0.4261527,
          -0.737069,
          0.8423008,
          2.083961,
          1.379542,
          -0.6439785,
          3.427491,
          1.417058,
          0.1049785,
          0.02066857,
          -0.05249653,
          -1.606315,
          2.16648,
          0.7953877,
          0.0917457,
          -1.385206,
          -0.1794947,
          2.142466,
          1.890991,
          0.1795282,
          3.148859,
          1.323879,
          0.03970924,
          0.07354472,
          0.1162034,
          1.094217,
          -0.6096435,
          0.7194348,
          -1.377256,
          -0.5644313,
          0.1367813,
          0.2552881,
          0.8062984,
          -0.2131817,
          -0.1876121,
          0.7007931,
          0.03747949,
          0.0128298,
          0.1516158,
          1.523571,
          0.008360278,
          1.905749,
          0.1957925,
          0.05076803,
          0.9076529,
          -0.8241777,
          -0.6047328,
          0.1979133,
          -0.8999169,
          0.2284518,
          0.05627458,
          -0.04310043,
          0.04873627,
          0.2801506,
          -0.05380529,
          0.2505249,
          0.02216741,
          -0.4029268,
          -0.1589621,
          2.725725,
          -0.6158627,
          0.7781673,
          0.420822,
          0.1504259,
          -0.02818158,
          0.1009142,
          0.03449299,
          0.03391932,
          0.1648651,
          -0.2642116,
          -0.1205507,
          1.033183,
          0.712339,
          0.2570677,
          -0.003894176,
          -0.03266168,
          -0.01140356,
          -0.02353187,
          -0.08487555,
          -0.07717445,
          0.101578,
          0.1100725,
          0.07651857,
          -0.06150923,
          0.01313025,
          0.02554455,
          0.2620682,
          -0.04780331,
          -0.04069423,
          0.02540112,
          0.1032138,
          -0.02437855,
          -0.05649659,
          0.02460581,
          0.003546163,
          0.02515002,
          -0.03104726,
          -0.4523688,
          -0.244028,
          0.9555413,
          2.046111,
          0.9165762,
          0.9706715,
          0.6182968,
          -0.09816917,
          -0.05928596,
          -0.1062118,
          0.0150952,
          -0.03591085,
          0.3696617,
          0.2211176,
          -0.6174181,
          -0.4073021,
          -2.166344,
          -1.30662,
          -0.3966651,
          -0.5114826,
          -0.2555811,
          0.4334145,
          -0.3567041,
          -0.07807865,
          -0.009138677,
          0.1224479,
          1.054152,
          1.254567,
          -1.146263,
          -0.1915088,
          -0.1351257,
          -0.6725298,
          -0.1106241,
          1.05374,
          -0.07805667,
          0.1046796,
          0.3432377,
          -0.2303988,
          -0.03925167,
          0.1762965,
          0.8870139,
          0.2414743,
          0.7427189,
          -1.517448,
          -0.4777392,
          0.4850145,
          -0.8221499,
          -0.9014061,
          0.5899233,
          1.698826,
          -0.05280887,
          -0.03469331,
          0.08019149,
          0.6935519,
          -0.5171973,
          -1.965354,
          -2.490963,
          -1.265633,
          -0.3320392,
          -2.266309,
          -0.0451138,
          -1.794804,
          -1.333534,
          -0.8050514,
          -1.203107,
          -0.06100969,
          -0.02985565,
          0.3933142,
          0.1689684,
          -0.6496403,
          -0.0985439,
          1.552781,
          -2.837586,
          -0.5398248,
          0.1523629,
          0.2994561,
          0.09543774,
          1.040154,
          -0.963914,
          -0.08744707,
          -0.08844149,
          -0.1137876,
          -0.01023197,
          1.349787,
          -1.079537,
          -1.956752,
          -2.811119,
          0.5656367,
          -0.3865203,
          0.617674,
          4.073999,
          1.566637,
          0.04976255,
          -0.3820642,
          0.01222497,
          0.1186844,
          -0.7562823,
          -0.6045417,
          -1.217073,
          -0.1411866,
          -1.433281,
          -0.4754597,
          -0.5375372,
          4.620495,
          0.9324183,
          1.149968,
          -0.3642988,
          -0.2402395,
          0.08825277,
          0.2346402,
          0.215024,
          1.12344,
          0.3883018,
          -0.4809741,
          -4.334527,
          2.203279,
          3.50128,
          2.991837,
          -0.2257421,
          0.2169096,
          -0.2456056,
          -0.3763762,
          0.115384,
          -0.445013,
          -0.1582707,
          2.156774,
          0.05302341,
          -1.773778,
          0.7418573,
          3.146956,
          1.116167,
          1.255313,
          1.041201,
          -1.839905,
          -0.295684,
          -0.08621948,
          0.1226867,
          -0.1192058,
          -1.399358,
          -0.9762983,
          -2.091713,
          -1.040309,
          1.884536,
          1.988937,
          2.083132,
          0.8174511,
          -0.72501,
          -0.4526105,
          -0.2034472,
          0.1257317,
          -0.06130309,
          0.02299796,
          -0.06881455,
          -0.1120547,
          -1.286697,
          -0.1486536,
          1.878961,
          0.1281929,
          3.177796,
          0.9968704,
          -0.8571732,
          -0.124395,
          -0.1983659,
          -0.03817126,
          0.07501242,
          0.1006275,
          0.06891716,
          0.0417087,
          -0.1289839,
          0.179385,
          -0.1599093,
          -0.4265107,
          0.2003715,
          -0.06533537,
          0.003508188,
          -0.009018856,
          0.01672629,
          -0.138765,
          0.02902824,
          0.115375,
          0.01418296,
          0.1030633,
          -0.1085233,
          0.03943537,
          0.04866023,
          0.3034948,
          -0.04825272,
          0.05208702,
          0.05184761,
          -0.03216082,
          -0.08248804,
          -0.07767742,
          -0.07583401,
          -0.01116931,
          -0.03300856,
          0.008786267,
          -0.03573439,
          -0.2453352,
          -0.641982,
          0.6952908,
          0.8658423,
          0.5198374,
          0.1970648,
          0.04056025,
          -0.0738565,
          0.06819384,
          -0.1166758,
          -0.03343751,
          0.08359226,
          0.1608884,
          2.015592,
          0.1227526,
          -0.4887174,
          1.583395,
          -0.07217821,
          1.263993,
          -0.3672914,
          -0.3185587,
          -0.142673,
          -0.03574825,
          -0.02950915,
          0.1044473,
          -0.3209277,
          1.046115,
          0.7695602,
          1.114355,
          0.5922961,
          -0.9926236,
          -0.7607366,
          -0.3610716,
          0.2080935,
          -0.4737237,
          -1.101059,
          -0.01369604,
          0.08317719,
          -0.1131457,
          0.9134296,
          1.767751,
          1.260597,
          0.004021885,
          1.975902,
          1.986186,
          0.6635501,
          0.4548067,
          -0.6283325,
          0.1365198,
          -1.597985,
          0.08801252,
          -0.02246151,
          0.07101186,
          -0.2909302,
          -0.9977694,
          0.8498101,
          -2.529886,
          -4.676268,
          -0.5527053,
          0.4633927,
          -1.388146,
          -1.822215,
          -1.859623,
          -1.347617,
          -0.05460761,
          -0.09057362,
          -0.2366327,
          -2.595026,
          -3.606373,
          -2.904526,
          -4.75385,
          -1.788603,
          -2.662899,
          -1.24972,
          0.1085101,
          -1.21275,
          0.1148385,
          0.4809204,
          0.03231114,
          -0.005173519,
          -0.1840739,
          -1.93452,
          -1.896398,
          0.1693713,
          0.2798901,
          1.356178,
          1.310836,
          1.879468,
          -0.8476573,
          -1.046133,
          1.673554,
          0.9519326,
          -0.002677229,
          0.03618672,
          -0.1692373,
          -0.5833576,
          0.09735271,
          1.533865,
          0.3040969,
          1.083746,
          -0.191708,
          -1.956606,
          0.7573562,
          0.3795537,
          1.161348,
          0.3415967,
          0.1225474,
          -0.01644783,
          -0.1388042,
          -0.7480113,
          -1.105328,
          0.5909922,
          0.7132585,
          3.746078,
          -0.4633498,
          -1.70927,
          0.2056709,
          -0.2536806,
          1.778143,
          0.7965394,
          0.1379,
          -0.07183365,
          -0.4551581,
          0.272088,
          -0.6125431,
          0.006931633,
          0.3113522,
          0.3818545,
          2.118266,
          -0.5492275,
          -1.808308,
          0.3347755,
          -0.275548,
          0.4014847,
          0.05390656,
          0.08439549,
          -0.2076495,
          0.5618418,
          0.4987721,
          -1.472395,
          -0.55231,
          -0.4792376,
          0.3939732,
          0.8861936,
          -1.855707,
          0.1863552,
          -0.2222638,
          -0.196063,
          0.04534135,
          -0.06462027,
          0.02028173,
          0.7549475,
          0.9854079,
          0.6794033,
          0.1020393,
          -3.560396,
          -1.263274,
          -1.191264,
          -3.402051,
          0.6838034,
          -0.2340131,
          -0.1007443,
          0.0853095,
          -0.1146593,
          -0.09167109,
          -0.1472574,
          0.07858176,
          0.8496932,
          1.634247,
          0.05863902,
          0.4412192,
          -0.1589489,
          0.01952202,
          -0.1953543,
          -0.07102068,
          -0.1260037,
          -0.1622084,
          -0.08375855,
          0.1191466,
          0.02778392,
          0.05042051,
          0.09839326,
          -0.1039893,
          0.06478567,
          0.1031569,
          -0.07068482,
          -0.02918749,
          0.06472316,
          0.05140413,
          0.04173974,
          0.01279241,
          -0.09111331,
          -0.07761338,
          0.05151309,
          -0.03501001,
          0.1768243,
          0.3252035,
          -1.267669,
          -1.203048,
          -0.6948777,
          0.9905732,
          0.03714462,
          0.5095695,
          -0.04167493,
          0.06629619,
          0.1203388,
          0.07050297,
          0.3277862,
          -0.241267,
          -0.8955388,
          -1.47409,
          -0.3854167,
          -2.77268,
          -1.45024,
          0.1526432,
          1.299107,
          0.8550984,
          -0.3553618,
          0.05573361,
          -0.06474043,
          -0.08966477,
          0.1499852,
          0.4477507,
          -0.5728247,
          -1.19761,
          -2.152676,
          -1.696342,
          -2.664581,
          -2.627201,
          -1.357748,
          -2.074832,
          0.3799779,
          0.2369883,
          -0.06496976,
          0.2092693,
          0.2438984,
          1.276725,
          1.257152,
          3.350319,
          4.884834,
          0.3548336,
          -2.491017,
          -1.167049,
          -1.259799,
          0.1065926,
          1.720062,
          0.1703285,
          -0.006959019,
          0.3332051,
          2.112336,
          3.509042,
          4.20268,
          3.39888,
          2.461434,
          4.552974,
          -0.9787676,
          0.1429169,
          -2.342484,
          0.73696,
          0.4759113,
          0.02638146,
          0.1160216,
          0.3492636,
          1.764083,
          2.332764,
          1.052477,
          0.6932132,
          1.477081,
          2.402549,
          1.0645,
          0.3631252,
          -0.6396281,
          0.3781863,
          -0.007664761,
          -0.09888096,
          0.02634342,
          -0.08324707,
          0.04871672,
          0.6591791,
          -1.200019,
          0.9427134,
          1.577316,
          1.341019,
          0.4573461,
          0.1712375,
          -1.643572,
          0.1071226,
          0.7757974,
          -0.1580802,
          0.03669107,
          0.3802817,
          -0.3205444,
          1.373503,
          0.2180798,
          1.106417,
          0.9744443,
          3.047913,
          -1.332597,
          1.050793,
          0.8539019,
          2.048551,
          1.034472,
          -0.06808244,
          -0.109747,
          0.01048434,
          -2.765907,
          -0.7294382,
          0.02248127,
          -1.078413,
          -0.9217454,
          -1.360343,
          0.07792537,
          -1.200344,
          1.117877,
          0.02121809,
          0.2526397,
          -0.05693647,
          -0.1084371,
          -0.128489,
          -0.07687236,
          -0.6993517,
          -0.2511657,
          0.717649,
          0.2575028,
          -1.692623,
          -0.1298308,
          -1.233409,
          -0.3463182,
          -1.202222,
          -0.3368478,
          -0.1037852,
          0.1031195,
          -0.01184714,
          0.5993036,
          -0.5151159,
          1.319504,
          0.1734292,
          -0.293642,
          -0.4298901,
          0.1952489,
          -0.5044544,
          -0.1826899,
          -0.9157439,
          -0.2619547,
          0.05343989,
          0.06354843,
          -0.02475782,
          -0.1995386,
          0.09126104,
          1.779739,
          0.7837117,
          1.145873,
          1.308504,
          0.7501578,
          0.1490968,
          -0.05997755,
          0.3458522,
          -0.04918335,
          0.06391835,
          0.08706109,
          0.07259711,
          0.09281237,
          0.1514047,
          0.0121401,
          0.0440655,
          0.01840209,
          0.09939501,
          0.04712185,
          0.1056841,
          0.06263029,
          0.1387143,
          -0.04884972,
          -0.04817762,
          0.08063957,
          0.01757516,
          -0.03735006,
          0.1034009,
          -0.07678858,
          0.01698983,
          0.07484292,
          -0.03405677,
          -0.02906487,
          0.020873,
          -0.06986021,
          -0.0313931,
          -0.07921646,
          0.02596466,
          -0.0945842,
          0.06127888,
          0.0647729,
          -0.01024866,
          -0.003242246,
          0.02818317,
          -0.4364478,
          -1.162413,
          -0.5341203,
          0.4069797,
          0.1655858,
          0.2691332,
          0.1257161,
          -0.09761512,
          0.08150855,
          -0.1840414,
          0.09770653,
          -0.3064342,
          -0.7584129,
          -1.198007,
          -0.4644906,
          -1.671598,
          1.600909,
          -0.1756738,
          -0.1736146,
          0.8072741,
          0.1565263,
          0.07569865,
          0.04743363,
          -0.09920704,
          -0.1141212,
          0.4872168,
          0.7735117,
          -0.015414,
          -1.946157,
          -0.1120721,
          -1.614914,
          -0.3154089,
          0.06861712,
          0.6054077,
          0.8621846,
          0.1682027,
          0.1266998,
          -0.05050699,
          0.1258569,
          1.382872,
          1.222794,
          1.434212,
          -2.323524,
          0.01609237,
          1.137085,
          0.2858853,
          1.322392,
          0.529901,
          1.112874,
          0.1402957,
          -0.0004384545,
          0.07073118,
          -1.036354,
          -0.8409431,
          0.24826,
          2.756443,
          4.773199,
          -5.091567,
          -1.152852,
          -2.46755,
          -0.5190129,
          1.874163,
          0.9900827,
          -0.0003615892,
          -0.06745042,
          0.2886012,
          0.7145391,
          1.968616,
          2.447828,
          3.953758,
          3.426107,
          -1.906821,
          0.1863441,
          -1.349811,
          0.3224525,
          3.011787,
          0.7165059,
          0.03065646,
          -0.06569774,
          -0.1199075,
          0.5134169,
          1.276988,
          1.885005,
          1.537269,
          1.709138,
          -0.8841797,
          -1.365214,
          -0.7708314,
          -0.07681129,
          2.793806,
          0.4808544,
          -0.1119759,
          -0.08865777,
          -0.4173206,
          -2.202398,
          0.5410303,
          1.843452,
          1.830259,
          1.783173,
          0.1492466,
          1.033642,
          0.7815613,
          0.1453859,
          1.339428,
          0.1082811,
          -0.1105342,
          -0.04572468,
          -0.1812627,
          -1.146914,
          -1.742504,
          -1.862684,
          -1.145276,
          0.4611166,
          -0.008444984,
          -1.078464,
          -0.4403639,
          0.1595528,
          -0.6888352,
          -0.08338864,
          -0.177811,
          -0.07504787,
          0.02402303,
          -1.497294,
          -2.250703,
          0.6628309,
          -1.816233,
          0.2287082,
          -0.7120261,
          -1.489716,
          0.4344349,
          -0.8172231,
          -1.908892,
          -0.9494016,
          0.07889782,
          -0.07666868,
          0.1038456,
          -1.498379,
          -0.103051,
          -0.9012714,
          -1.228805,
          2.525845,
          0.03285304,
          -0.3779379,
          0.3546637,
          -0.2975133,
          -2.057069,
          -1.079164,
          0.0416239,
          0.1169779,
          0.1217919,
          0.08227144,
          0.6278476,
          0.3482574,
          0.3536174,
          0.9399652,
          -0.7813512,
          -0.9625751,
          -0.7689618,
          -1.424441,
          -0.3078228,
          -0.2255886,
          -0.1005703,
          0.07389602,
          -0.04262221,
          -0.06729998,
          0.1479776,
          0.05562428,
          -0.3994423,
          -0.5018169,
          -0.4351295,
          0.08695354,
          0.150624,
          -0.1807006,
          -0.3255586,
          -0.2288384,
          -0.2200032,
          0.01110004,
          -0.1059785,
          0.04319794,
          -0.01668722,
          -0.09287792,
          0.02723831,
          -0.02711389,
          0.1367432,
          0.001456415,
          0.02009098,
          -0.09299164,
          -0.1248695,
          0.008972686,
          -0.08731678,
          0.07070392,
          -0.03389958,
          0.1700307,
          0.025387,
          -0.1171695,
          -0.8052286,
          -0.3635409,
          0.07740467,
          0.6122835,
          0.0005089437,
          -0.05420164,
          0.1141249,
          0.1160679,
          -0.1152067,
          -0.116181,
          -0.07157058,
          0.03950216,
          -0.009957204,
          0.3802556,
          0.009290067,
          -0.4447281,
          -0.2139308,
          -0.8678672,
          -0.3283412,
          -0.3819664,
          0.4184271,
          0.8416933,
          -0.08973702,
          -0.09672104,
          0.1853629,
          0.4374664,
          -1.624605,
          -1.152659,
          -1.29369,
          0.2931834,
          -0.3230139,
          0.5342821,
          -0.4626519,
          -0.1955011,
          -2.558381,
          0.4707224,
          -0.1023923,
          -0.1096279,
          -0.1031264,
          -0.3570361,
          -1.715807,
          -2.183583,
          -1.173684,
          -0.4732761,
          -1.008063,
          -0.9999824,
          -1.34225,
          -0.08237536,
          -2.794626,
          -0.5721183,
          -0.005662484,
          0.04285887,
          -0.4742267,
          0.5605288,
          -1.655733,
          -1.128689,
          -1.04844,
          -1.814157,
          -1.327243,
          -3.949218,
          -3.82639,
          -2.195832,
          -2.491003,
          -1.203379,
          -0.05559365,
          0.09983081,
          -0.2985164,
          -1.179948,
          -3.388999,
          0.0005378945,
          -0.3334422,
          -0.4893308,
          -0.411249,
          -1.563584,
          -1.603339,
          -1.027377,
          -2.634407,
          0.1238711,
          0.2569233,
          0.0373864,
          0.0303536,
          -0.3277971,
          -0.0684923,
          -1.007593,
          0.2409301,
          0.8375793,
          1.206461,
          1.152518,
          0.6506478,
          -0.4238497,
          -0.6282597,
          1.313123,
          0.5082431,
          -0.001065883,
          -0.2787908,
          1.47162,
          1.672365,
          -0.009821452,
          1.767014,
          1.820849,
          -0.1087352,
          0.01315082,
          0.6627113,
          1.471624,
          1.778111,
          2.089476,
          0.4621027,
          0.02259266,
          -0.3187839,
          2.06043,
          1.989656,
          1.572382,
          1.154884,
          0.7426459,
          1.660931,
          2.468466,
          4.134733,
          1.42111,
          4.638095,
          0.1049835,
          0.06088789,
          -0.1148377,
          -0.01013179,
          0.3866883,
          0.8090614,
          -0.7751014,
          -0.4001849,
          -1.009069,
          -0.5510443,
          0.7100772,
          2.51627,
          3.238023,
          1.175464,
          0.00630701,
          -0.02610905,
          0.1152516,
          -0.2789453,
          -0.7031983,
          -0.8245597,
          1.205241,
          -0.2861666,
          0.7110353,
          -1.294962,
          -2.830307,
          -2.672799,
          -1.515112,
          -0.8057368,
          0.173596,
          -0.05572974,
          0.1076396,
          -0.1418102,
          -0.5377213,
          -0.677274,
          -1.11715,
          -1.09215,
          -1.446069,
          -2.046379,
          -2.420824,
          -3.46242,
          -1.513071,
          -0.5493058,
          0.1073304,
          0.008534084,
          -0.09386451,
          0.09308554,
          -0.06073068,
          -0.04164487,
          -0.1689431,
          -0.02455631,
          0.06270452,
          -0.0622435,
          -0.0397627,
          -0.1641986,
          0.06544255,
          -0.0231708,
          0.09834002,
          -0.1125385,
          0.01464331,
          -0.07547101,
          -0.03467561,
          -0.02891686,
          -0.02738589,
          0.03773353,
          0.03023868,
          0.2248237,
          0.08063176,
          -0.1573887,
          0.07564697,
          0.1102709,
          -0.1228959,
          0.02214152,
          0.02197463,
          -0.03470908,
          -0.01656171,
          -0.393483,
          -0.3788715,
          -0.7641338,
          -0.6002892,
          0.6198407,
          0.6225357,
          0.7613617,
          0.08176932,
          -0.3087895,
          -0.1286841,
          -0.1187865,
          0.06411693,
          0.007176307,
          -0.8147135,
          -2.004228,
          -2.611634,
          -0.4636833,
          -0.7420126,
          -2.02623,
          0.1211162,
          0.8714291,
          -0.1196732,
          0.2031277,
          0.1951562,
          -0.07957885,
          -0.01906621,
          0.01260193,
          -1.620521,
          -2.421061,
          -1.235077,
          -0.6485904,
          1.0259,
          0.7225807,
          0.7983172,
          0.6014671,
          -0.1245508,
          -1.293831,
          -0.08981456,
          -0.1353705,
          0.04769877,
          -0.1727795,
          -2.015601,
          0.2831893,
          -0.7038444,
          -3.340255,
          2.461686,
          0.7863175,
          -0.05227526,
          0.7056479,
          -0.1385049,
          0.6488767,
          3.164216,
          0.08487149,
          0.0318881,
          -0.5003066,
          -0.6997346,
          -0.8414043,
          1.037455,
          -0.4484898,
          0.9071692,
          -5.15653,
          -2.036737,
          -0.7853149,
          -0.8864404,
          -2.824866,
          1.008755,
          0.1255191,
          0.1206673,
          -0.409767,
          0.4680454,
          1.072236,
          0.924463,
          -0.09372887,
          0.5996534,
          -2.09209,
          -2.21194,
          -2.167082,
          -1.239656,
          -2.554908,
          -0.9179301,
          0.1461725,
          -0.03757501,
          0.01465479,
          1.132305,
          0.8515928,
          1.682919,
          -1.095715,
          -1.168144,
          -1.992365,
          -2.739977,
          -0.5354411,
          -1.263126,
          1.151899,
          0.06041762,
          0.1866307,
          -0.1231975,
          -0.4547839,
          -0.4963632,
          1.444219,
          1.416577,
          -0.5490428,
          -0.2350159,
          -1.040082,
          1.366465,
          0.2044034,
          2.306181,
          -0.1058072,
          0.2387311,
          0.1541494,
          -0.1212111,
          -0.5391253,
          -0.8500288,
          0.2344407,
          0.5494092,
          1.19332,
          -1.953576,
          3.304767,
          1.134957,
          1.233946,
          2.368635,
          -0.1997226,
          0.5046276,
          0.0865024,
          -0.04991534,
          0.461918,
          2.041743,
          0.732932,
          1.102402,
          2.193354,
          -1.413316,
          0.2035128,
          1.751704,
          0.2416974,
          2.505855,
          -0.442591,
          -0.2477923,
          -0.09995987,
          0.05858871,
          0.05212239,
          -0.2372746,
          0.5216032,
          0.3534807,
          1.338767,
          -0.08434907,
          -1.478532,
          -0.8328013,
          -0.1161183,
          0.1225779,
          -0.4069402,
          0.1957573,
          0.02041952,
          -0.05794383,
          -0.103113,
          -0.7888886,
          -0.9443622,
          -0.08940847,
          -0.8461254,
          1.230856,
          -0.642426,
          -0.6130927,
          0.2608652,
          -0.05103249,
          -0.2543067,
          0.07484908,
          0.01064167,
          0.01680459,
          -0.0008091491,
          0.1038943,
          -0.08140765,
          -0.09360072,
          -0.2896498,
          -0.1374001,
          -0.005040694,
          -0.3843193,
          -0.07114834,
          0.05434868,
          0.06112784,
          0.04513783,
          -0.1480782,
          -0.04251482,
          0.0570991,
          0.01138477,
          -0.07544578,
          0.1193364,
          -0.04138822,
          0.03017574,
          0.1219393,
          0.0972195,
          0.1096018,
          0.0569064,
          0.02858767,
          -0.0979807,
          0.07677223,
          -0.0833752,
          0.09772488,
          0.1006645,
          -0.1418484,
          -0.05575319,
          0.002155965,
          0.3264004,
          0.3039671,
          0.4055191,
          0.212793,
          0.04519978,
          0.03824518,
          0.1119611,
          -0.01958245,
          -0.0008428583,
          -0.1014326,
          0.07773176,
          -0.3738483,
          0.9248986,
          1.137674,
          -0.728437,
          0.3044573,
          2.185955,
          -0.09179512,
          -0.2496091,
          0.1630408,
          -0.1339285,
          0.06770756,
          -0.1083121,
          -0.008842897,
          0.2917334,
          -0.1665401,
          0.4327914,
          1.713387,
          -1.505069,
          0.3467897,
          -1.168332,
          -0.2239426,
          0.5358006,
          0.2192048,
          -0.2804835,
          0.004532073,
          0.01354377,
          0.04087138,
          0.6711611,
          1.089228,
          1.37225,
          3.799004,
          3.177511,
          0.2942977,
          -0.7062464,
          0.5485266,
          0.1282719,
          0.930566,
          1.291497,
          -0.04967511,
          0.0554865,
          0.3887084,
          -0.6814368,
          1.531097,
          0.1197432,
          5.136415,
          0.9949559,
          -7.112657,
          -0.9637413,
          -1.871206,
          0.5859774,
          -0.4258658,
          0.6767921,
          0.1211614,
          -0.003742152,
          0.2540505,
          -0.6681792,
          1.219805,
          1.224086,
          2.185942,
          -6.176086,
          -1.529569,
          -0.8706974,
          -2.509195,
          -2.938539,
          -0.6831341,
          -0.4392803,
          0.06046702,
          -0.09971397,
          0.04704884,
          0.42902,
          0.4863294,
          0.8593828,
          -2.776428,
          -5.01425,
          0.01135379,
          -2.483177,
          -2.939439,
          -3.653929,
          0.05365575,
          -0.07748199,
          -0.1270204,
          -0.0563269,
          -0.1145982,
          0.3895441,
          0.2008128,
          0.2263085,
          -1.811072,
          -4.093317,
          -1.067359,
          -1.466289,
          -1.432008,
          0.3287555,
          1.989378,
          0.0213956,
          -0.04869443,
          0.07480781,
          -0.01548869,
          -0.6172131,
          -1.515191,
          -2.074288,
          -0.5429108,
          -0.9859597,
          -3.390529,
          -1.71146,
          2.356599,
          2.911885,
          0.5966999,
          -0.389285,
          -0.006051962,
          -0.008655152,
          -0.03884608,
          -0.306989,
          -0.6497817,
          0.08606983,
          0.225624,
          0.5980954,
          1.449223,
          0.7096957,
          2.086428,
          -0.2922722,
          0.7857081,
          -0.4039226,
          0.07202417,
          -0.01447313,
          -0.2499767,
          -0.02523564,
          1.616772,
          1.559654,
          1.20886,
          -0.2284302,
          1.84739,
          0.5735763,
          -0.2812238,
          0.4194177,
          0.06844988,
          -0.2999289,
          -0.09243035,
          0.08483028,
          -0.09976327,
          0.3434535,
          1.490489,
          2.85025,
          1.696866,
          0.374149,
          0.6514536,
          -0.2651155,
          1.494191,
          0.7698883,
          0.4289057,
          0.1350657,
          0.03759155,
          -0.09512857,
          -0.06140762,
          -0.09260103,
          -0.1128993,
          -0.08099252,
          -1.002565,
          -1.365561,
          -0.3599037,
          0.4911453,
          0.1685955,
          -0.243896,
          -0.05002292,
          -0.1042759,
          -0.2110776,
          -0.01680336,
          0.0216718,
          -0.1110139,
          -0.1059726,
          -0.1042259,
          -0.1130597,
          -0.107141,
          0.04017474,
          -0.06878991,
          -0.04675718,
          -0.1186496,
          0.04751129,
          -0.01233317,
          0.08901696,
          -0.07799048,
          0.06515063,
          0.007443071,
          0.06383758,
          0.1428293,
          -0.006791471,
          -0.3189646,
          -0.4834343,
          0.2099438,
          0.598968,
          0.0413693,
          -0.2249065,
          -0.02255262,
          -0.06332982,
          -0.08931548,
          0.08115878,
          -0.1377719,
          0.8047515,
          -0.6939657,
          -1.438798,
          -2.689508,
          -1.405492,
          2.955715,
          2.059232,
          -0.01949127,
          -1.204005,
          -0.04209329,
          0.07791498,
          -0.1151269,
          0.02938184,
          -0.2009628,
          0.714453,
          0.7645459,
          0.3134623,
          -1.745351,
          0.492368,
          5.235756,
          3.597877,
          -0.5145293,
          -2.289993,
          -0.3112297,
          0.1204091,
          -0.1498278,
          -0.06308787,
          0.3009529,
          0.9910836,
          0.1983017,
          0.9312307,
          -2.645092,
          2.9051,
          4.960701,
          -0.6027673,
          -0.9542553,
          0.7950443,
          -0.009626893,
          0.2399682,
          0.01009365,
          -0.2509621,
          0.7291484,
          0.9185985,
          1.574757,
          -1.296294,
          -2.769416,
          2.137281,
          0.1599667,
          -2.843412,
          -0.7229258,
          -0.4688362,
          0.09363478,
          -0.001843233,
          -0.01740988,
          -0.1626051,
          1.162362,
          -1.326716,
          -1.160949,
          -1.292177,
          0.1482369,
          1.964776,
          -0.581754,
          -2.411833,
          -2.146983,
          -1.536097,
          0.392287,
          0.2714245,
          -0.1138811,
          -0.07359396,
          -0.7603244,
          -1.656567,
          1.183955,
          -1.87325,
          2.609132,
          0.4395279,
          0.6917428,
          -0.6373824,
          -0.4372653,
          -1.423486,
          1.400962,
          0.497827,
          -0.1089577,
          0.2872202,
          0.3263528,
          0.2123289,
          -0.2444023,
          -0.8066195,
          0.4362724,
          1.500321,
          2.725101,
          2.287412,
          0.7612645,
          -2.727482,
          1.064565,
          0.3184362,
          -0.09483832,
          0.3192968,
          0.1348343,
          0.9010233,
          -0.3855383,
          1.591902,
          -1.34473,
          0.3566694,
          -0.5832022,
          0.6663626,
          -1.410145,
          -1.332932,
          -0.1224371,
          0.1360924,
          0.03483285,
          0.3024277,
          1.421399,
          0.3154652,
          0.9014673,
          0.1173975,
          -1.08567,
          0.296693,
          0.7311057,
          -1.323516,
          -0.4816886,
          0.09831345,
          -0.02678423,
          -0.1123904,
          0.01531908,
          -0.010608,
          0.5833793,
          -0.189362,
          0.004939935,
          -0.2109323,
          1.034,
          -0.5140441,
          0.1695098,
          0.3159316,
          1.717932,
          1.017969,
          0.6387049,
          -0.08052141,
          -0.03424847,
          -0.0286024,
          0.3880917,
          -0.1967203,
          1.692072,
          -0.7034828,
          -1.371628,
          -2.269936,
          -0.7488797,
          -0.4654028,
          0.8950564,
          0.1819935,
          0.2371206,
          0.03023759,
          0.03514315,
          -0.06470099,
          0.09678982,
          0.1116286,
          0.6895673,
          0.5146253,
          1.399044,
          0.4187028,
          -0.2518138,
          -0.3853489,
          -0.06923093,
          -0.02574629,
          -0.05517248,
          0.0356445,
          0.1139587,
          0.1105834,
          -0.07192452,
          0.08710752,
          0.1059262,
          0.08591779,
          -0.09913655,
          -0.1238453,
          -0.03334294,
          0.06449404,
          0.07955637,
          0.1062345,
          0.03158206,
          -0.1151178,
          -0.03032389,
          -0.06509691,
          -0.04053117,
          0.1477225,
          0.1343693,
          -0.09701402,
          0.9916318,
          -0.1056465,
          -2.26463,
          -1.782825,
          -0.6950918,
          -0.07188185,
          -0.03774218,
          -0.1056415,
          -0.02953707,
          0.1151426,
          -0.2547553,
          -0.1500088,
          0.5042245,
          1.66655,
          0.6165876,
          -1.880247,
          0.3002402,
          -0.02643315,
          0.9142784,
          0.803434,
          0.2460317,
          -0.01476343,
          0.01310745,
          0.1700163,
          -0.3993002,
          -0.6892631,
          0.01025613,
          1.052077,
          -1.392275,
          1.293004,
          -1.349177,
          -1.692339,
          -0.1555762,
          0.1982049,
          0.2591403,
          0.07126501,
          -0.05674251,
          -0.04233332,
          -0.1953511,
          0.9000656,
          -0.3831467,
          0.03559321,
          0.2290546,
          -2.896376,
          -1.173742,
          -0.4452232,
          -2.84283,
          -2.694094,
          0.4999624,
          0.2017266,
          0.09955937,
          -0.6378156,
          1.030468,
          1.640023,
          -2.028836,
          -0.3381177,
          -1.143763,
          -2.363146,
          -2.218089,
          -1.214037,
          0.06705096,
          -3.616832,
          -0.617667,
          0.05369655,
          -0.05670378,
          0.001399864,
          0.7460171,
          1.890643,
          0.3262829,
          2.393053,
          2.425817,
          -0.1939267,
          1.961769,
          1.525443,
          1.368073,
          0.06228394,
          1.241545,
          0.1742035,
          -0.03334219,
          0.07434499,
          -0.662283,
          -0.9357556,
          0.7837899,
          0.6929507,
          1.273451,
          0.8135965,
          1.838288,
          1.094613,
          1.595517,
          2.347246,
          0.1427691,
          0.1271569,
          0.09491444,
          0.05773012,
          -0.069425,
          -0.4208598,
          0.5779274,
          1.279102,
          2.575961,
          0.4234496,
          0.7980945,
          1.743149,
          3.450575,
          -0.147238,
          0.3831568,
          0.03627098,
          -0.04428314,
          -0.2830084,
          0.5485587,
          -1.088969,
          -0.8350347,
          0.3289652,
          -0.01115271,
          -1.814481,
          -1.675145,
          2.269496,
          2.091272,
          -0.4082672,
          0.2798276,
          -0.05177232,
          0.06909022,
          0.1854946,
          0.7539194,
          -2.045393,
          -0.1895238,
          -1.244392,
          1.110497,
          -0.5385239,
          1.458085,
          4.282928,
          0.2178981,
          0.4959539,
          0.09182667,
          -0.01682361,
          0.04442137,
          0.1319517,
          -0.0428962,
          -1.191785,
          1.015922,
          0.01596896,
          -1.026095,
          -0.268279,
          4.209359,
          3.614856,
          0.9206715,
          0.8892262,
          0.1088443,
          -0.05166815,
          -0.01831936,
          -0.09783008,
          -0.7660604,
          -2.171453,
          -1.59163,
          0.3866019,
          0.3075809,
          1.772886,
          3.076866,
          2.318533,
          0.6340377,
          0.200712,
          0.06359041,
          0.1190054,
          -0.04177985,
          -0.01748648,
          -0.08500437,
          -0.1284393,
          -0.2803031,
          -0.7684489,
          -0.179632,
          0.03756836,
          -0.07436533,
          -0.1455834,
          -0.1655927,
          -0.1429579,
          -0.1128864,
          -0.02576826,
          -0.09884387,
          0.1184349,
          -0.04004011,
          -0.08182785,
          0.0873993,
          0.07748329,
          0.08047613,
          0.02609729,
          -0.03027358,
          0.07174263,
          0.2083145,
          0.09699889,
          -0.09968752,
          0.07379819,
          0.05262913,
          -0.1160023,
          0.03875425,
          0.6269428,
          0.7706358,
          1.248568,
          1.276709,
          1.942901,
          1.326627,
          1.305857,
          0.7918383,
          0.5343983,
          0.01825553,
          -0.00819199,
          -0.09362555,
          -0.03381986,
          0.3812218,
          1.98921,
          1.130396,
          2.884006,
          2.736099,
          0.3665949,
          1.340512,
          3.075277,
          0.6123934,
          -0.168177,
          0.02168676,
          0.2276655,
          0.1232046,
          -0.1258051,
          -0.1369105,
          0.5953411,
          -0.9909968,
          -0.2581529,
          -1.002793,
          -0.655456,
          -0.8953608,
          0.176139,
          -0.2009015,
          -1.254288,
          0.5361204,
          0.1839577,
          -0.08391187,
          -0.1469364,
          0.6060386,
          0.06753477,
          0.1888297,
          -3.327691,
          -1.589456,
          -2.441966,
          -3.206892,
          -1.518381,
          -0.7229544,
          -1.679962,
          1.068962,
          0.3709513,
          -0.06069466,
          -0.2431088,
          0.3305997,
          -2.101759,
          -1.709786,
          0.1027651,
          0.2164261,
          -0.8518072,
          -1.351908,
          -0.1944084,
          0.3978937,
          2.416407,
          1.257147,
          -0.1052154,
          0.09602137,
          -0.226788,
          -1.428856,
          -2.334147,
          -2.52355,
          -2.811178,
          -0.09023463,
          1.913957,
          -0.505168,
          -1.342009,
          -0.01341075,
          2.156692,
          1.43812,
          0.1162907,
          -0.05828065,
          0.02811059,
          -1.071004,
          0.369952,
          1.732752,
          -1.187932,
          -0.2362148,
          1.7148,
          -2.469282,
          -2.129977,
          -0.2345331,
          -0.1465184,
          -0.2434412,
          0.004495805,
          0.07755739,
          -0.03915307,
          0.4037377,
          -0.05770025,
          0.2824385,
          0.7745016,
          0.6425791,
          0.2672206,
          -2.265796,
          -0.7037225,
          -0.438572,
          0.5140069,
          0.03999843,
          0.01049744,
          -0.1225386,
          0.4147678,
          1.286358,
          0.7855291,
          0.02232229,
          0.5075687,
          0.3519214,
          -0.4128627,
          2.499578,
          0.9281647,
          0.1906587,
          0.8547707,
          0.3275101,
          -0.1351875,
          0.07050563,
          0.3405128,
          0.06689045,
          1.978953,
          2.022094,
          2.895321,
          2.857142,
          3.143551,
          0.3997287,
          1.035924,
          0.5146164,
          0.4728208,
          0.1443786,
          -0.08270089,
          -0.04983016,
          0.2910675,
          0.9341021,
