{
  "network" : {
    "class" : "SAI.BasicTrainableFeedForwardNetwork",
    "hidden layers" : [
      {
        "momentum" : 0.5,
        "neuron class" : "SAI.BasicDeepNeuron",
        "activation function" : {
          "class" : "SAI.SigmoidActivationFunction"
        },
        "class" : "SAI.PerceptronHiddenLayer",
        "neurons" : [
          {
            "bias" : -0.449892,
            "weights" : [
              0.07924435,
              -0.01607074,
              0.008263767,
              -0.01824186,
              -0.04874034,
              -0.1154732,
              -0.1391042,
              0.07029466,
              -0.001729509,
              -0.1493407,
              0.05058219,
              0.003496141,
              0.05622691,
              0.1167929,
              -0.0008487398,
              -0.0380411,
              -0.1348655,
              -0.2720941,
              -0.3107528,
              -0.2499211,
              -0.637055,
              -0.4244505,
              -0.3525824,
              -0.8211432,
              -0.3018089,
              -0.2589135,
              -0.06772718,
              0.02997068,
              0.008573143,
              -0.03286587,
              -0.1224201,
              -0.369207,
              -0.338381,
              1.06432,
              0.7839862,
              -0.9726066,
              -0.8499337,
              -0.4167248,
              -0.191789,
              -0.6761465,
              -0.05809307,
              -0.01837142,
              -0.08441638,
              0.1180635,
              0.04497644,
              -0.1272264,
              -0.4637355,
              -0.3988742,
              -0.1483307,
              0.6504748,
              -0.2867759,
              0.634088,
              0.8912598,
              -0.6105319,
              -0.4480523,
              0.001351011,
              -0.1054228,
              0.007866655,
              0.3446287,
              1.919519,
              1.064826,
              -0.2843587,
              0.7731522,
              -0.9274811,
              -0.4207136,
              0.9305953,
              2.038047,
              -0.4411921,
              -0.9772732,
              0.05560954,
              0.1044435,
              -0.01515939,
              0.3017872,
              0.7288265,
              1.581752,
              0.5939968,
              -3.038948,
              -1.405994,
              2.533212,
              2.424679,
              1.230945,
              -0.6383761,
              -1.165698,
              -0.07637981,
              0.02607252,
              -0.1214717,
              0.04408781,
              -1.110585,
              -1.306861,
              -2.294584,
              -1.992118,
              2.905019,
              2.824694,
              1.714021,
              2.767277,
              -1.216497,
              -0.4373183,
              0.1196919,
              -0.09078981,
              0.2089669,
              -0.1770815,
              -1.464853,
              -1.257902,
              -1.334724,
              1.632288,
              1.741147,
              1.764162,
              0.8538457,
              0.1881347,
              -2.139841,
              -0.7098684,
              0.09379064,
              -0.1155121,
              0.02485029,
              0.2495346,
              0.4557264,
              0.8666253,
              -0.9418203,
              3.675893,
              2.085799,
              0.4053909,
              -0.5194438,
              -1.03711,
              -0.7361274,
              -0.3850729,
              -0.0509446,
              0.07502909,
              0.2886847,
              -0.3292095,
              -1.243528,
              -0.685343,
              -1.652303,
              0.3728969,
              -1.090736,
              -1.293691,
              -2.017274,
              -2.484152,
              -0.5797267,
              0.278112,
              -0.01503402,
              0.1057741,
              0.418355,
              0.4581108,
              -0.4122807,
              0.6278692,
              -0.2752837,
              -2.381529,
              0.621601,
              -0.2215277,
              -1.128121,
              0.5932206,
              0.04205259,
              0.05334783,
              0.04845833,
              0.09444808,
              0.0492275,
              -0.1900844,
              -0.03207623,
              -0.006818244,
              -0.7613398,
              -0.926369,
              -0.8140679,
              0.2362398,
              0.06982768,
              -0.04761702,
              0.6112223,
              0.1329108,
              -0.1309466,
              0.04187319,
              -0.0379672,
              0.1264532,
              -0.08311678,
              -0.7776868,
              -1.109927,
              -2.080618,
              -0.6765082,
              0.01389939,
              -0.4846352,
              0.1340781,
              0.1241727,
              -0.1670471,
              0.1007577,
              0.009124443,
              0.02623011,
              -0.05643658,
              0.09368934,
              0.1807724,
              0.06263675,
              -0.3106118,
              0.1508745,
              -0.02805472,
              -0.06710227,
              0.01562656,
              0.004529544,
              0.01792307,
              -0.06536584
            ]
          },
          {
            "bias" : -0.197052,
            "weights" : [
              0.008508369,
              -0.05157343,
              -0.09503802,
              0.08597541,
              0.1023702,
              0.03981982,
              -0.04001148,
              0.008721165,
              0.1088579,
              0.09050686,
              -0.03641453,
              -0.04200828,
              0.02361642,
              -0.07029621,
              -0.1045917,
              0.09037749,
              -0.0382073,
              0.100232,
              0.2107071,
              0.5101312,
              0.5770517,
              0.2066889,
              -0.1636851,
              -0.3325925,
              0.1049356,
              0.1630109,
              -0.1221234,
              -0.05904802,
              -0.006627927,
              -0.1009468,
              0.3375573,
              0.1981245,
              0.9042229,
              1.204236,
              0.6820169,
              -0.4631051,
              -0.1641141,
              -1.254964,
              -0.7874557,
              -0.4032666,
              -0.3053142,
              -0.03772609,
              -0.08937674,
              0.0860761,
              -0.1465386,
              -0.3157769,
              -1.410542,
              0.04018721,
              0.1991149,
              0.03198754,
              -0.8879578,
              -0.541344,
              -0.7275521,
              -0.4959529,
              -0.4488232,
              -0.1524975,
              -0.003855673,
              0.03339656,
              0.2219376,
              0.2270745,
              -0.05026873,
              1.414477,
              1.990454,
              -1.723106,
              -0.6195094,
              0.006723408,
              0.06914453,
              -0.06820688,
              -0.4170178,
              -0.2003251,
              0.06683994,
              0.4124934,
              0.5038644,
              1.166282,
              1.543263,
              2.366911,
              -1.589613,
              -2.840601,
              -0.214143,
              -1.296496,
              0.2231835,
              -0.2132044,
              -0.775407,
              -0.1017883,
              -0.09943406,
              0.2207234,
              0.3508708,
              0.5358288,
              -0.2223052,
              0.2509288,
              -4.361104,
              -0.02425661,
              0.114315,
              -0.4133294,
              -0.3841235,
              1.293734,
              -0.3447538,
              -0.2130008,
              0.005331492,
              -0.2182415,
              0.04686118,
              0.7372937,
              -0.5623195,
              -1.015282,
              -2.502034,
              -0.4691492,
              0.09183675,
              -1.060602,
              0.1563449,
              0.4202007,
              -0.3689883,
              -0.2235055,
              -0.04584467,
              -0.191513,
              -0.08966809,
              1.48067,
              1.509791,
              0.5123572,
              -1.296476,
              -0.9930124,
              -1.327551,
              -0.1899042,
              0.9025127,
              0.4871506,
              -0.5979405,
              -0.2594273,
              0.06326131,
              -0.1621244,
              0.120455,
              1.008032,
              1.886748,
              0.9937374,
              -0.2335034,
              -0.8831843,
              0.9603349,
              2.005225,
              1.255057,
              0.2748376,
              -0.5943564,
              0.01752333,
              0.05675953,
              -0.3359093,
              -0.7411146,
              -0.2163856,
              -0.6782802,
              -0.7112389,
              -0.6972467,
              0.5015417,
              1.384801,
              0.2832873,
              -0.8055786,
              -0.29534,
              0.0305656,
              0.05957251,
              -0.08419596,
              -0.122622,
              -0.8388343,
              -1.452289,
              -1.998097,
              -1.43849,
              -1.274868,
              0.444781,
              1.340425,
              0.05608343,
              0.2359506,
              -0.4468581,
              0.004084891,
              -0.0921127,
              -0.007532723,
              -0.07029928,
              0.04952916,
              -0.1287232,
              0.1552562,
              0.6008176,
              0.3626178,
              0.07812279,
              0.5916425,
              0.08155253,
              0.5193335,
              0.0360827,
              0.01930284,
              -0.04697454,
              -0.05475947,
              0.07517329,
              -0.02465566,
              -0.02738223,
              0.203879,
              0.006575572,
              0.04690715,
              -0.01272195,
              0.1386877,
              0.1112087,
              0.1611734,
              -0.03351702,
              -0.005061809,
              0.05353605
            ]
          },
          {
            "bias" : -0.02997118,
            "weights" : [
              0.1140023,
              0.07427096,
              0.07547297,
              0.03139707,
              0.1105244,
              0.02855957,
              -0.07480221,
              0.2450345,
              -0.06823318,
              0.01553037,
              -0.07607172,
              -0.1222476,
              0.07243835,
              0.002003655,
              0.085366,
              -0.1211774,
              -0.05255698,
              -0.09886309,
              0.003772527,
              0.03815998,
              0.5872378,
              1.064896,
              0.2610273,
              0.5760933,
              0.1707548,
              0.02879125,
              0.06867348,
              0.04375286,
              -0.1041588,
              0.05608911,
              -0.1185022,
              0.1003021,
              -0.4424285,
              0.4606646,
              1.125637,
              0.5220499,
              1.276881,
              0.9430122,
              0.3452437,
              0.1019563,
              0.2764945,
              -0.02673477,
              0.03489353,
              -0.1082683,
              -0.03434848,
              -0.0148665,
              -1.236807,
              0.6610001,
              -0.7854707,
              -0.4619533,
              -1.604913,
              1.077354,
              0.6135443,
              0.9010563,
              0.6069851,
              0.01177109,
              -0.004993654,
              -0.07111765,
              0.4325892,
              -0.2536729,
              -0.1133255,
              -0.3573787,
              -0.2692977,
              -0.123731,
              0.001765319,
              0.1174326,
              -0.6384814,
              0.4841819,
              0.9952058,
              0.08370542,
              0.006841043,
              0.05194073,
              0.8413078,
              -0.5738218,
              -0.1437818,
              -1.209785,
              -0.5694236,
              -0.3161348,
              -1.079213,
              -0.2739491,
              0.5451916,
              2.927028,
              2.146323,
              0.3152159,
              -0.03085608,
              0.06049887,
              0.1586204,
              -1.666556,
              -1.013479,
              -2.365181,
              0.6838145,
              -0.7363406,
              -2.664209,
              -1.140011,
              -1.379206,
              0.7429222,
              0.6749057,
              0.1201935,
              -0.00912395,
              -0.2676822,
              -0.6731042,
              -0.8764039,
              0.449369,
              -1.022278,
              1.229775,
              0.553296,
              -0.9515207,
              -2.819502,
              -0.8798683,
              -0.3915118,
              0.1187407,
              -0.05947295,
              0.1206428,
              0.08140837,
              -1.190308,
              -1.458818,
              0.1018732,
              0.2965775,
              2.635145,
              -0.7023948,
              -3.150407,
              -0.9706817,
              -0.6370372,
              0.3649463,
              -0.08309754,
              -0.04036266,
              -0.08739495,
              0.1199823,
              -1.091758,
              0.3045693,
              0.135857,
              -0.8470231,
              -0.75816,
              -1.411464,
              0.6859398,
              1.133011,
              0.7388149,
              0.878154,
              -0.1882103,
              -0.0263691,
              0.1084025,
              -0.01395857,
              0.4867229,
              2.453116,
              1.083854,
              1.468673,
              2.821392,
              3.087938,
              2.320077,
              3.000577,
              3.272765,
              0.8496475,
              -0.1609341,
              -0.1134972,
              -0.0882021,
              0.3209228,
              0.1332468,
              -0.5975518,
              0.9953392,
              0.6219851,
              2.039017,
              1.703743,
              1.940238,
              2.442514,
              1.206321,
              -0.2657171,
              -0.02478801,
              0.05646706,
              0.1180639,
              -0.01056486,
              -0.5993291,
              -0.5591543,
              2.154143,
              1.156961,
              1.370148,
              1.14429,
              0.1883484,
              0.5791102,
              -0.5194903,
              -0.2359935,
              -0.01273856,
              -0.02742945,
              0.04759763,
              -0.08058834,
              0.05079789,
              -0.1124669,
              -0.187137,
              -0.1157377,
              -0.0007416268,
              -0.2488129,
              -0.2333478,
              -0.3300204,
              -0.1486755,
              -0.06311971,
              -0.09684332,
              -0.103023
            ]
          },
          {
            "bias" : -0.5502297,
            "weights" : [
              -0.05417882,
              -0.05145358,
              -0.006620401,
              -0.009737872,
              0.0972981,
              0.07588784,
              -0.1239923,
              -0.03104348,
              0.1035817,
              -0.01900469,
              -0.08638518,
              -0.002845859,
              -0.1009589,
              -0.02110586,
              0.05360738,
              0.06785484,
              0.02283912,
              -0.1721822,
              -0.05646397,
              -0.1401349,
              -0.4772496,
              -0.312468,
              -0.107723,
              0.1877886,
              -0.01589755,
              -0.216862,
              0.04351219,
              -0.003175441,
              0.05248838,
              0.03091499,
              -0.2758561,
              -0.5839916,
              -0.4454972,
              -0.644093,
              -1.528057,
              -2.211162,
              -1.355373,
              -0.5636531,
              0.01393285,
              0.4780579,
              0.2364473,
              -0.02384931,
              -0.118097,
              0.07991774,
              -0.1684817,
              0.06661061,
              0.1967808,
              0.1099259,
              -1.536717,
              -0.2434804,
              0.1799249,
              1.439035,
              0.5330302,
              1.292065,
              0.249953,
              -0.05856116,
              0.03813466,
              -0.0979542,
              -0.1318229,
              0.1088461,
              1.393488,
              -0.6142028,
              -0.05931547,
              1.668338,
              1.90454,
              3.242611,
              2.19396,
              1.15216,
              0.9582565,
              -0.1180994,
              -0.105535,
              -0.09568117,
              -0.388343,
              -0.7429392,
              0.1043198,
              0.376159,
              -0.6710918,
              -0.4929919,
              -2.452228,
              -4.888485,
              -3.49003,
              -2.456737,
              -0.3770649,
              0.01865705,
              -0.1100509,
              0.02713878,
              -0.2215143,
              0.5998537,
              0.3994411,
              -0.8151056,
              -0.648297,
              0.4384986,
              -0.2202538,
              -0.8964254,
              -1.326123,
              -1.81033,
              -0.7501954,
              -0.1225516,
              -0.01562639,
              -0.07130967,
              -0.298164,
              0.2858779,
              0.4289704,
              0.4712462,
              -0.6391566,
              -0.1467823,
              0.2366395,
              0.8586841,
              0.504611,
              -0.2054507,
              -0.6455463,
              -0.04411991,
              0.1191307,
              -0.2992819,
              -0.4621915,
              0.6388565,
              0.3013232,
              0.3540496,
              -1.665829,
              0.8848099,
              0.8036839,
              -0.2164162,
              0.08985001,
              -1.072014,
              -0.5017963,
              -0.2024211,
              0.06938381,
              -0.2697399,
              -0.7019337,
              -0.7238983,
              -0.9608896,
              -1.265326,
              0.5790732,
              1.172916,
              -1.095063,
              -0.07911256,
              -1.431135,
              -1.483926,
              -0.2639194,
              -0.09477187,
              -0.08249456,
              -0.4496298,
              -1.15759,
              -1.317143,
              -0.9887649,
              -1.043402,
              1.026139,
              0.7971186,
              -0.00481248,
              0.3657117,
              -1.184888,
              -0.6905422,
              -0.02491961,
              0.1086578,
              -0.01802764,
              -0.1022778,
              -0.6442845,
              -1.362558,
              -1.582275,
              -0.1209686,
              0.1403372,
              0.3850299,
              0.3942638,
              0.09981815,
              -0.1730936,
              -0.008938893,
              0.07152405,
              0.07177275,
              -0.01264652,
              0.1615575,
              -0.09412027,
              -0.9467441,
              -1.59449,
              -0.2214401,
              -0.2762362,
              -0.09889586,
              -0.3962479,
              -0.1719694,
              0.1943774,
              0.2695622,
              -0.03071561,
              0.000286785,
              0.03163745,
              0.08592024,
              -0.0991262,
              -0.08679228,
              0.003669678,
              -0.01714641,
              -0.188884,
              0.1559937,
              0.140317,
              0.08667284,
              -0.08045055,
              -0.1024816,
              -0.02794724,
              -0.06190075
            ]
          },
          {
            "bias" : -0.6489397,
            "weights" : [
              0.0950627,
              0.004477665,
              0.0007542451,
              0.04549582,
              0.007286555,
              0.1160776,
              -0.08480005,
              0.0644951,
              0.09598139,
              -0.1253592,
              0.07493723,
              0.1166836,
              0.02484441,
              0.08841726,
              -0.03855845,
              0.1238696,
              0.1157164,
              0.01752955,
              0.07355116,
              -0.003342337,
              -0.2923605,
              0.6131032,
              0.7643336,
              0.0406158,
              0.2195193,
              -0.02883469,
              -0.1109665,
              0.08049435,
              0.08573323,
              -0.1060289,
              -0.002681361,
              0.3057484,
              0.3509217,
              0.8537235,
              0.6451334,
              1.544904,
              1.785803,
              -0.2273639,
              -0.2786984,
              -0.3556315,
              -0.02218765,
              0.1094918,
              -0.07340159,
              0.07571459,
              -0.3772362,
              0.5570694,
              0.2241904,
              0.3364913,
              0.2921522,
              2.112081,
              0.9729659,
              -1.13965,
              -1.097509,
              0.5797309,
              0.002656305,
              0.09303383,
              0.1005294,
              -0.1260782,
              -0.6746366,
              -1.268993,
              -2.03588,
              -2.671564,
              0.865426,
              2.476414,
              -1.261974,
              -1.138381,
              -1.083661,
              -0.1368733,
              0.5612921,
              -0.08417173,
              -0.03212719,
              -0.2124769,
              -0.8543043,
              -0.3737468,
              -0.05030841,
              2.846985,
              3.407639,
              -0.9229383,
              -1.62811,
              -1.254496,
              -1.288048,
              -0.2007502,
              0.5326071,
              0.1023093,
              0.05557611,
              -0.1928902,
              0.3185455,
              1.40016,
              2.675197,
              0.6682364,
              -0.7680172,
              -0.7758604,
              -0.4433957,
              -0.4496273,
              -0.07906565,
              0.8042861,
              0.3460407,
              0.1719633,
              0.04653207,
              -0.1441942,
              0.1200292,
              1.048547,
              1.058303,
              -0.2273879,
              -1.165008,
              -0.9950225,
              0.9066588,
              0.2676081,
              -1.069027,
              1.319838,
              0.6018838,
              0.090245,
              -0.1105398,
              -0.5499842,
              0.3830296,
              0.7115328,
              0.8349618,
              0.5113479,
              -0.463737,
              0.03368044,
              0.3285962,
              -0.4785863,
              -0.1338957,
              0.5931054,
              0.4438846,
              0.1394332,
              0.0513507,
              -0.6296661,
              -0.3952065,
              -0.3134442,
              0.8996666,
              1.112264,
              1.140443,
              -0.9132374,
              -0.09964555,
              -0.1873877,
              -0.01121165,
              1.128084,
              0.5849051,
              0.1326507,
              0.1142175,
              -0.1058106,
              0.3942858,
              -0.09659116,
              -0.3620179,
              0.4613521,
              -0.3728873,
              -0.3168696,
              -0.2248832,
              0.7257555,
              0.7083206,
              0.9347286,
              0.1513702,
              0.1073496,
              -0.03964103,
              0.1023061,
              -0.694106,
              -0.4941752,
              1.767549,
              0.6740437,
              0.1721868,
              -0.3713022,
              0.588786,
              0.7896911,
              0.5091105,
              0.1933486,
              0.1485245,
              -0.03304394,
              0.0852519,
              0.102006,
              -0.5684166,
              -1.170868,
              -0.4612685,
              0.584341,
              0.4042251,
              0.2397519,
              -0.3687944,
              0.009005821,
              0.03101799,
              -0.1078267,
              -0.08627836,
              -0.06322967,
              0.09332097,
              -0.1172125,
              0.1195294,
              -0.08797274,
              0.2020849,
              0.08560956,
              -0.05977006,
              -0.1696953,
              -0.1370731,
              -0.02388808,
              -0.09720629,
              -0.136924,
              -0.09218244,
              0.05582719
            ]
          },
          {
            "bias" : -0.6954978,
            "weights" : [
              -0.04763475,
              0.05847728,
              -0.002417562,
              0.01596154,
              0.1031453,
              -0.1361303,
              0.01166062,
              0.003309423,
              0.04968502,
              -0.07274483,
              -0.05074162,
              0.003010181,
              -0.06791009,
              -0.08741013,
              0.09051075,
              0.01589184,
              0.1053813,
              -0.1367407,
              -0.5138648,
              -0.6651826,
              -0.9221605,
              -0.5695143,
              0.1340999,
              0.6432512,
              0.05154696,
              -0.1589326,
              -0.05760289,
              -0.02498697,
              -0.1226305,
              -0.1174505,
              -0.0417571,
              -0.3896056,
              -0.5105028,
              -0.6793001,
              -1.283847,
              -1.63354,
              -0.8774457,
              0.457359,
              0.5140591,
              0.7259564,
              0.5344559,
              0.05959539,
              -0.0243248,
              0.06365667,
              0.3437163,
              1.171739,
              1.252439,
              0.3483256,
              -0.1903871,
              0.05338271,
              0.03966798,
              -0.3025451,
              0.06341301,
              0.2815829,
              0.8847005,
              0.1149096,
              0.1097557,
              0.1238561,
              0.6269038,
              1.494492,
              0.7761586,
              -0.3967724,
              -0.6346883,
              0.1631994,
              0.927795,
              0.1193446,
              0.2290657,
              0.9593821,
              0.6701155,
              -0.07737645,
              -0.01633601,
              0.2624696,
              0.8463299,
              1.030573,
              1.991995,
              1.167702,
              -1.883808,
              -0.8018064,
              -0.4061192,
              -0.7219286,
              -0.1270059,
              0.4171426,
              0.5017816,
              0.1361368,
              -0.002895462,
              0.1335524,
              0.6343223,
              1.366202,
              1.766088,
              2.779199,
              -0.09109997,
              -1.085402,
              0.8416228,
              -0.6506167,
              0.1890273,
              -0.02551221,
              0.1265039,
              -0.03012149,
              -0.1020229,
              -0.03040097,
              0.1225837,
              0.07521258,
              1.197262,
              1.894412,
              0.2718721,
              0.2603654,
              1.862922,
              1.235175,
              -0.1403111,
              -0.6428198,
              -1.1434,
              -0.16419,
              0.03142823,
              -0.2815592,
              -1.342377,
              -1.343859,
              -0.7065216,
              0.7835817,
              2.79731,
              0.4005486,
              1.04354,
              -0.5262102,
              -0.3255121,
              -0.9760218,
              -1.424182,
              -0.1994285,
              0.1253091,
              -0.1546267,
              -1.170348,
              -1.996054,
              -3.215751,
              -2.850979,
              -0.8329356,
              -0.6944785,
              -1.209124,
              -1.674101,
              -0.8045201,
              -1.699767,
              -0.8600319,
              -0.04572181,
              0.06979224,
              0.04324085,
              -0.7459338,
              -0.6628419,
              -0.2312628,
              -1.405336,
              -0.6541261,
              -0.6555699,
              -0.202761,
              -1.119668,
              -0.2495522,
              -0.6497679,
              -0.3233584,
              -0.09008139,
              0.1070261,
              0.05897331,
              0.5468649,
              1.802925,
              0.0411677,
              0.1715057,
              -0.3583164,
              -1.029879,
              0.4067345,
              -0.2989361,
              -0.2734414,
              -0.4295661,
              -0.1828081,
              0.08751534,
              -0.064546,
              0.03309368,
              0.4142517,
              1.32269,
              0.9558603,
              1.815832,
              1.761343,
              1.992136,
              1.380327,
              0.943685,
              0.4520808,
              -0.09517099,
              -0.1540054,
              -0.006267727,
              -0.08943267,
              0.0227693,
              0.08885507,
              0.03278545,
              0.1975038,
              0.3152813,
              0.2695375,
              0.2651486,
              0.1528617,
              0.1525426,
              0.03632018,
              0.1481555,
              0.01185192,
              -0.04990336
            ]
          },
          {
            "bias" : 0.5761523,
            "weights" : [
              0.121587,
              -0.113847,
              0.1057798,
              0.03347309,
              -0.003371577,
              0.1112376,
              -0.02677379,
              0.04404573,
              0.1251454,
              0.0275552,
              -0.09586144,
              0.1170303,
              0.02161709,
              -0.1080602,
              0.01925305,
              0.01229403,
              0.1109266,
              -0.01083561,
              -0.1033771,
              -0.07230072,
              -0.2633195,
              -0.2389864,
              -0.4106851,
              -0.5098308,
              -0.2121906,
              -0.1063673,
              -0.05536405,
              -0.01897487,
              0.07289215,
              -0.01874855,
              0.05918997,
              -0.2693949,
              -0.4547738,
              -0.05086465,
              -1.21719,
              -1.426031,
              -1.485596,
              -1.529559,
              -0.6787744,
              -0.1650602,
              -0.4200796,
              -0.2170229,
              0.08346858,
              0.06011898,
              -0.232638,
              -0.8156904,
              -0.7115619,
              -0.4917794,
              -1.143441,
              -0.8079441,
              -1.286096,
              -0.7688782,
              -0.8312622,
              -0.6890908,
              -0.79777,
              -0.02543831,
              0.04109982,
              0.1064591,
              0.2705893,
              0.04838097,
              0.07070154,
              -0.2516079,
              1.158533,
              -0.2062217,
              -0.9356234,
              0.1204368,
              -0.5515715,
              -0.1905255,
              -0.1371394,
              -0.05451874,
              -0.1083247,
              0.5802781,
              0.8898539,
              1.125985,
              0.1091542,
              -0.226736,
              0.3288846,
              2.761712,
              0.7680339,
              -0.6387241,
              -0.9896314,
              -1.608301,
              -0.2807534,
              -0.3487581,
              -0.06397165,
              0.5748094,
              1.034842,
              0.3756007,
              -1.255278,
              -0.6775619,
              2.582839,
              2.480959,
              1.456138,
              -0.1969688,
              -1.360849,
              -1.221729,
              -0.4301642,
              0.004810564,
              -0.01525396,
              0.04486821,
              -0.01810664,
              -0.951438,
              -0.7344807,
              1.056594,
              1.521808,
              -0.07567465,
              0.6416408,
              0.2576134,
              0.1576225,
              0.8274134,
              0.2090987,
              0.1341849,
              -0.02096911,
              0.1045638,
              -0.03298468,
              -0.3878477,
              -1.189049,
              -0.04676026,
              0.4978052,
              0.7130057,
              -0.2439971,
              -0.5100763,
              1.165569,
              0.4103608,
              -0.1102866,
              0.03904374,
              -0.05365403,
              -0.1295855,
              -0.2762854,
              -1.742776,
              -2.819678,
              -0.502854,
              1.912778,
              -1.257755,
              -2.629221,
              -1.610163,
              -1.59553,
              -0.9347112,
              0.03227158,
              0.1317139,
              -0.03555346,
              -0.1631625,
              0.08303174,
              -0.9589479,
              -1.034219,
              -1.249442,
              -2.231128,
              -1.434015,
              -2.12835,
              -2.098334,
              -2.058395,
              -1.223275,
              -0.02542069,
              0.01117304,
              0.06220423,
              -0.1712873,
              0.7140244,
              1.352298,
              -0.1990096,
              -0.8164153,
              -1.36527,
              -1.611264,
              -0.9643316,
              -1.258965,
              -1.025677,
              -0.05675076,
              0.256328,
              0.04544261,
              -0.1032901,
              -0.06267138,
              0.6634602,
              1.056809,
              -0.1829464,
              -0.9490512,
              -0.2425511,
              -0.581234,
              0.2004802,
              -0.06949242,
              0.3307263,
              0.2182514,
              0.1503459,
              -0.1153316,
              0.1029683,
              -0.06079055,
              0.1205469,
              0.1303002,
              0.1239131,
              0.05029064,
              0.432699,
              0.4309037,
              0.6873589,
              0.407068,
              0.3525468,
              0.280073,
              0.4555224,
              0.2802657
            ]
          },
          {
            "bias" : -0.9579538,
            "weights" : [
              0.0004004315,
              -0.01404028,
              -0.009038886,
              0.0311375,
              0.0435975,
              0.04291965,
              -0.03841539,
              -0.1445753,
              -0.1071438,
              0.03817152,
              0.01133402,
              -0.07488367,
              0.1089465,
              -0.0188514,
              0.01875995,
              -0.01112034,
              -0.01014965,
              0.1645751,
              0.01435333,
              0.1463309,
              0.7403717,
              0.06071596,
              0.3189855,
              0.06165609,
              0.07158185,
              -0.1737345,
              0.1098242,
              0.02632164,
              0.07807796,
              0.06675718,
              0.1639186,
              0.9845199,
              1.704037,
              1.581115,
              1.325209,
              1.397808,
              1.341862,
              0.2914865,
              -0.7196473,
              -1.029289,
              -0.1301593,
              0.02393214,
              0.04032603,
              0.002922286,
              0.6177578,
              2.298496,
              2.346083,
              2.346462,
              1.490121,
              -0.06828042,
              0.4938883,
              0.5841355,
              0.9166291,
              0.5763339,
              -0.1005637,
              -0.002031774,
              0.1284642,
              0.1968258,
              0.8019952,
              0.01623163,
              1.796302,
              2.402346,
              3.454169,
              2.731834,
              0.9920211,
              0.848181,
              0.6078771,
              0.9707083,
              -0.5002563,
              0.09078264,
              -0.08358124,
              0.04139433,
              -1.408188,
              -3.247992,
              -2.640975,
              -4.309606,
              -1.654608,
              -0.576771,
              0.1177444,
              -1.486972,
              0.5666912,
              -0.0002386254,
              -0.2055493,
              0.03877303,
              -0.06378588,
              -0.3040446,
              -2.343031,
              -3.195095,
              -2.403713,
              -0.7184419,
              -0.7970533,
              -1.117788,
              0.7234735,
              0.3856504,
              0.05149238,
              -0.5781974,
              0.1751763,
              0.03485833,
              -0.09434795,
              -0.2131292,
              -0.3400263,
              0.4279304,
              0.7345641,
              1.018962,
              -0.8883507,
              -0.673335,
              -0.4662587,
              -0.4635842,
              -0.07479947,
              -0.1183609,
              0.5526872,
              -0.01252075,
              -0.003460744,
              0.02533314,
              0.7884761,
              0.1955142,
              0.002278375,
              0.2678438,
              -1.51385,
              -0.5950027,
              0.3312072,
              -1.294778,
              0.8936456,
              0.4121706,
              0.4299847,
              0.1748814,
              0.1136399,
              0.3861441,
              1.328948,
              0.7093492,
              0.6150196,
              0.004420354,
              -0.2791303,
              -0.223558,
              -0.6942692,
              -0.2405285,
              -0.2805576,
              0.4408798,
              0.4371958,
              -0.005561662,
              -0.003144082,
              0.3888802,
              0.3032546,
              0.6410559,
              -0.01773367,
              0.2313577,
              0.1006807,
              -0.4880687,
              -0.1777445,
              -1.428033,
              -0.9431098,
              0.00153947,
              -0.04045524,
              -0.02423304,
              0.08845119,
              -0.0731554,
              -0.09739574,
              0.4478176,
              -0.6720508,
              0.5591574,
              -1.614319,
              -0.2177813,
              -1.385197,
              -1.47988,
              -0.8340887,
              -0.1740081,
              0.0597127,
              0.07612097,
              -0.04403453,
              -0.08470055,
              0.1413684,
              0.116391,
              0.1676981,
              0.5115213,
              1.180881,
              1.179013,
              0.4285504,
              0.338786,
              -0.1866829,
              -0.1561418,
              -0.1033572,
              0.05640366,
              -0.02340773,
              -0.1008458,
              -0.1163103,
              -0.2856388,
              -0.06179324,
              0.2216382,
              -0.1872069,
              0.1612691,
              0.1644427,
              0.2676729,
              0.005860568,
              0.03462112,
              -0.1012758,
              -0.0708451
            ]
          },
          {
            "bias" : -0.8708971,
            "weights" : [
              -0.04514675,
              0.05479741,
              -0.1148537,
              0.05569145,
              -0.01552823,
              -0.04617484,
              -0.05423433,
              -0.01419,
              -0.06525807,
              0.1031323,
              -0.07342617,
              0.01046076,
              -0.02036912,
              -0.07462808,
              -0.08640537,
              -0.0230356,
              0.08517913,
              -0.1564755,
              -0.3877165,
              -0.08490022,
              -0.5054286,
              -0.1097499,
              -0.1175097,
              0.1201786,
              0.1271688,
              0.03721038,
              -0.1040494,
              0.02022479,
              -0.06526601,
              -0.08111825,
              -0.2547975,
              -0.41965,
              -0.7800249,
              -0.8437166,
              -0.8803074,
              0.4722013,
              0.4878304,
              -0.1738667,
              0.9225147,
              0.6679569,
              0.01900652,
              -0.03506522,
              0.0710918,
              -0.1113337,
              -0.5106058,
              -0.1646983,
              -1.584366,
              -0.9930672,
              -1.985235,
              -2.716471,
              -2.372942,
              0.3839981,
              1.008734,
              1.542559,
              0.2227786,
              0.06335229,
              0.07146866,
              0.04053608,
              -0.2604612,
              0.02399758,
              -1.526412,
              -0.493138,
              -1.210212,
              -1.039625,
              -0.6210269,
              -1.117936,
              -0.9417347,
              1.474885,
              0.7325099,
              0.03205553,
              0.002238396,
              0.07096391,
              0.2387507,
              0.9722347,
              2.724875,
              2.681004,
              4.811019,
              1.973377,
              -0.2786869,
              -1.153393,
              -0.8030127,
              0.3659677,
              0.5076749,
              -0.07988467,
              -0.09149802,
              -0.001906772,
              0.8846239,
              2.166507,
              2.981358,
              1.235895,
              1.840765,
              -0.2714722,
              0.9801988,
              0.3841865,
              -0.2841243,
              1.056075,
              0.3049726,
              -0.004316774,
              -0.05151571,
              -0.1194718,
              0.114529,
              0.5474349,
              -0.4520542,
              0.05137554,
              2.530362,
              -0.7070726,
              -0.5918128,
              -1.058113,
              -0.6206679,
              0.607211,
              -0.03584997,
              -0.05223702,
              -0.04588565,
              -0.1985965,
              -0.7228682,
              0.2436888,
              1.332522,
              0.9693301,
              0.947154,
              -1.330359,
              0.055601,
              1.848402,
              0.2024296,
              -0.8028479,
              -0.2998899,
              -0.04217844,
              -0.1204518,
              -0.1885838,
              -0.4308176,
              -0.9565834,
              0.943031,
              0.3101943,
              -1.242221,
              0.8236478,
              -0.2633828,
              0.9052044,
              0.7447472,
              -0.5690818,
              -0.2772937,
              -0.07126053,
              -0.05478702,
              -0.04102778,
              -0.3187346,
              -0.4947151,
              -1.671741,
              -0.1237032,
              -1.049573,
              -0.6512214,
              -1.184984,
              -1.09619,
              0.5182477,
              0.3241174,
              -0.004833124,
              -0.06139546,
              -0.1056854,
              0.03447693,
              -0.2417802,
              0.1381101,
              0.5193368,
              0.7617261,
              0.7173746,
              0.5978845,
              1.460209,
              -0.8136909,
              0.3237534,
              -0.5114935,
              -0.07002296,
              -0.03685074,
              0.01170591,
              0.09317385,
              -0.422752,
              -0.2887373,
              1.084953,
              0.02868051,
              -0.8067389,
              -0.6163865,
              0.6936737,
              -1.024903,
              -0.8448657,
              -0.2232906,
              0.08955497,
              0.04984849,
              -0.06218161,
              -0.0229269,
              0.02891374,
              -0.04207785,
              -0.08090734,
              -0.4613746,
              -0.7992261,
              -0.6242713,
              -0.1570616,
              -0.06737307,
              -0.2516746,
              -0.2962402,
              -0.3187787,
              -0.2904449
            ]
          },
          {
            "bias" : -0.7203429,
            "weights" : [
              0.0171973,
              -0.06384525,
              -0.01560308,
              0.008708133,
              0.1323865,
              -0.07696974,
              0.05467793,
              -0.04134404,
              -0.03789532,
              0.006991855,
              -0.02162109,
              -0.02116589,
              -0.0633147,
              -0.005154647,
              -0.1208123,
              0.06923123,
              0.1545361,
              0.4961054,
              0.8099094,
              1.086583,
              1.164819,
              1.131394,
              0.7428644,
              0.6825969,
              0.751541,
              0.5954606,
              0.2761239,
              0.06256208,
              0.04091056,
              -0.005685448,
              0.1078033,
              1.3922,
              1.404378,
              1.382594,
              1.218279,
              0.7489981,
              1.139026,
              2.084162,
              1.417147,
              0.657215,
              0.2971846,
              -0.002714467,
              -0.01053931,
              0.009032642,
              0.2918251,
              0.9422968,
              0.7585077,
              0.05495419,
              0.4675662,
              1.173771,
              2.184984,
              2.480895,
              0.1892283,
              -1.210109,
              -0.1985451,
              -0.1188861,
              -0.02181653,
              0.01687724,
              0.3873678,
              -0.03356586,
              1.01116,
              0.6875391,
              -0.5198581,
              -1.341819,
              -3.390796,
              -1.907652,
              -0.5645653,
              -1.383497,
              -0.7807176,
              0.05013642,
              -0.05985022,
              -0.07597203,
              0.2321592,
              0.6433217,
              -0.1182037,
              -0.9624099,
              -0.06315821,
              -0.9084914,
              -1.232218,
              -0.3902169,
              -0.3859185,
              -0.7478793,
              -0.6224891,
              -0.1523693,
              -0.06719356,
              -0.04486392,
              -0.2317995,
              -0.4607553,
              -2.081522,
              -0.8758441,
              -0.6980639,
              0.7659476,
              0.457074,
              -0.5368254,
              0.07244518,
              1.732229,
              0.695684,
              -0.1127668,
              -0.07219359,
              0.1029096,
              -0.6518235,
              -1.116784,
              0.1094778,
              0.5814013,
              0.5404782,
              0.5619055,
              -1.500421,
              0.1265985,
              1.069015,
              1.212326,
              0.3737717,
              -0.02798588,
              -0.04501041,
              0.02234967,
              0.2998555,
              -0.1868563,
              -0.7114004,
              -1.233388,
              -1.502589,
              -1.056076,
              -1.008618,
              0.5170157,
              0.1861013,
              0.6146382,
              0.6094072,
              0.01676308,
              0.05985722,
              0.09742691,
              0.1071437,
              -0.7951912,
              -0.6510858,
              -0.6085984,
              0.7379561,
              0.553025,
              0.293862,
              0.1128579,
              0.3922781,
              0.9928498,
              0.3334934,
              -0.04073214,
              0.04658087,
              0.1246236,
              1.049485,
              1.388544,
              2.174051,
              3.021153,
              2.116892,
              2.068242,
              1.587439,
              0.7594713,
              -0.1474671,
              -0.2324005,
              -0.1286336,
              0.07525842,
              0.02205182,
              -0.02477161,
              0.407007,
              0.4138885,
              -0.191537,
              -1.589467,
              0.36748,
              0.8971041,
              1.53171,
              -0.09528693,
              -0.3727493,
              -0.6428821,
              -0.2369752,
              -0.06912115,
              -0.06975336,
              -0.06494724,
              -0.1311829,
              -0.2583363,
              -0.18329,
              0.9840328,
              1.018969,
              0.7614143,
              0.6558611,
              -0.1006609,
              -0.3948808,
              -0.2572196,
              -0.1057422,
              0.03743752,
              0.0848709,
              0.1045536,
              0.0183729,
              0.02034471,
              -0.06775857,
              0.1322881,
              0.061211,
              0.01868693,
              -0.1576871,
              -0.1854318,
              -0.01063012,
              0.0690625,
              -0.08458823,
              0.00368658
            ]
          },
          {
            "bias" : -0.390301,
            "weights" : [
              0.04941125,
              0.02092591,
              0.01629576,
              -0.01018433,
              -0.06805356,
              -0.07227556,
              -0.1012613,
              -0.006033763,
              0.1099606,
              -0.1100762,
              0.04438694,
              0.1091769,
              0.1122459,
              0.06713234,
              0.1175894,
              -0.1187484,
              -0.04241893,
              0.03680388,
              -0.000177299,
              -0.2957087,
              -0.5054692,
              -0.00876548,
              0.02141739,
              0.5527801,
              0.425762,
              0.1014883,
              0.06980988,
              -0.01623546,
              0.1000961,
              -0.06939223,
              -0.482191,
              -0.3601283,
              -0.03357367,
              1.018795,
              0.8008071,
              0.04264252,
              -0.07633791,
              1.533045,
              1.323958,
              1.022214,
              0.3393787,
              -0.08558639,
              0.04823027,
              -0.05395795,
              -0.75806,
              0.4253959,
              0.1171619,
              0.5983417,
              1.161528,
              -1.114943,
              1.196432,
              1.657022,
              1.176782,
              0.9503215,
              0.4988043,
              0.1172546,
              0.1051405,
              0.1290998,
              -0.3898672,
              0.2441241,
              0.3072049,
              3.20069,
              0.9049345,
              -2.278356,
              -0.5421753,
              -1.435261,
              -1.002589,
              0.3050925,
              0.5114377,
              -0.05396244,
              0.01110347,
              0.1486645,
              0.3416245,
              0.5337455,
              1.596666,
              1.598333,
              -1.333449,
              -3.900393,
              -1.76576,
              -2.866588,
              -2.09252,
              -1.425349,
              0.01872053,
              -0.05303381,
              -0.02035391,
              0.1396544,
              0.7723836,
              1.014524,
              0.2298625,
              -1.304169,
              -0.4993123,
              -2.696704,
              -0.495914,
              0.1539028,
              0.4285305,
              0.987438,
              -0.04953741,
              0.06174138,
              -0.01052407,
              -0.1677215,
              1.219892,
              -0.07497447,
              0.2501142,
              -0.4610342,
              -1.232496,
              -1.816947,
              -2.569875,
              -0.7420244,
              -0.07720362,
              1.07422,
              0.3503087,
              0.05976358,
              -0.1297031,
              -0.4248326,
              -0.1081665,
              -1.523119,
              -0.4059729,
              -0.4120117,
              -0.7717934,
              -4.515423,
              -0.9752245,
              1.32784,
              1.075006,
              0.1452791,
              0.1649326,
              0.1428323,
              0.08093378,
              -0.0134249,
              -0.7499731,
              -0.02815456,
              0.5106335,
              -0.6796629,
              -2.55744,
              -2.177148,
              2.467343,
              -0.4333875,
              -0.1721966,
              -0.4352263,
              0.3151707,
              0.01986625,
              -0.0267478,
              0.01100611,
              0.5610549,
              -0.3446136,
              -0.03211709,
              0.4114438,
              0.2400408,
              1.264325,
              1.754026,
              0.2196853,
              0.8673826,
              0.6156489,
              0.2963874,
              -0.08028668,
              0.05758452,
              -0.03911783,
              -0.007677167,
              0.2610329,
              -0.2534867,
              0.1066333,
              0.630935,
              0.6756287,
              0.3281861,
              0.4689588,
              0.4816142,
              0.1161572,
              -0.02679988,
              0.02905957,
              -0.08049184,
              0.030924,
              -0.05681653,
              -0.2000357,
              -0.202983,
              -0.1018761,
              2.004013,
              0.389482,
              0.02028753,
              0.989637,
              0.3825537,
              0.1994079,
              -0.06683938,
              0.007293682,
              -0.09455395,
              -0.1229633,
              -0.04491406,
              -0.05586306,
              -0.1805888,
              -0.2178164,
              -0.1272651,
              0.04643919,
              0.03073149,
              0.1756354,
              0.2896413,
              0.1612481,
              0.2791055,
              0.09447698
            ]
          },
          {
            "bias" : 0.7085733,
            "weights" : [
              -0.08358023,
              -0.06224438,
              0.0152105,
              0.01825483,
              0.1254652,
              -0.03362705,
              -0.04952015,
              -0.09899801,
              -0.0281569,
              0.02922322,
              -0.09216498,
              0.05686701,
              0.1156412,
              0.07670666,
              0.0213604,
              0.01193613,
              0.01168396,
              0.1452938,
              0.2742613,
              0.4586782,
              0.8866139,
              0.8238221,
              0.1070333,
              0.009193313,
              -0.2081387,
              -0.01728941,
              0.0911124,
              -0.03863544,
              -0.03910034,
              -0.01039021,
              -0.01275394,
              0.2727128,
              0.1417474,
              0.7463247,
              0.4626904,
              1.274612,
              1.229198,
              0.1690803,
              -0.9141126,
              -0.6353644,
              -0.128886,
              0.0124476,
              -0.007523373,
              -0.02601429,
              -0.1320917,
              -0.007353582,
              1.340189,
              -0.2061533,
              -2.864688,
              2.232043,
              3.833546,
              0.03403297,
              0.5934389,
              -0.8582067,
              -0.2231298,
              0.05013257,
              0.008521632,
              -0.2427298,
              -0.2640219,
              -1.011858,
              -0.6730943,
              -1.442532,
              -2.106059,
              2.025685,
              2.07397,
              -0.8030915,
              0.2131512,
              -0.2621481,
              -0.3616091,
              -0.1337834,
              -0.03146398,
              -0.1817441,
              -0.09709866,
              0.5741143,
              1.027187,
              -0.72492,
              -4.777989,
              3.964846,
              -0.1631921,
              -2.202638,
              -1.342568,
              -0.4272386,
              0.1443079,
              -0.01848204,
              0.08500381,
              -0.3521698,
              0.3203555,
              -0.4920562,
              -0.9503943,
              -2.567127,
              -1.090525,
              3.121586,
              -1.077327,
              -0.004605121,
              0.9322044,
              0.3375176,
              0.2886625,
              -0.09554482,
              -0.03451608,
              0.1468426,
              -0.3219287,
              -0.05736895,
              -1.499742,
              -0.1195357,
              3.222037,
              1.212398,
              0.7894689,
              0.04696148,
              0.6623056,
              -1.394852,
              0.1340042,
              0.1618109,
              -0.001660887,
              0.04082865,
              -0.7329152,
              0.135335,
              0.2331444,
              1.1767,
              0.5724339,
              1.206282,
              0.1939853,
              -0.427278,
              -0.546963,
              -1.785535,
              0.2839493,
              0.05803794,
              -0.02097,
              0.008111276,
              -0.7359006,
              -0.4867324,
              -0.2965083,
              0.2143088,
              -0.1911634,
              0.9119892,
              0.9288066,
              0.4127942,
              0.264541,
              -0.07597543,
              0.2436372,
              0.0224544,
              0.06606096,
              0.01467219,
              0.6432782,
              1.240197,
              0.284799,
              0.226839,
              -0.4182451,
              1.9219,
              1.251933,
              -0.1286015,
              0.2282899,
              0.3008637,
              0.4315039,
              0.1112145,
              -0.07590185,
              0.2020129,
              0.5716225,
              0.5889384,
              -0.8280005,
              -0.5759436,
              0.134422,
              0.05015739,
              0.3394665,
              -0.3196802,
              0.4258493,
              0.5534348,
              0.2881576,
              0.08496965,
              -0.08313371,
              0.0499916,
              0.1855977,
              1.025675,
              0.6993741,
              0.4473604,
              -1.640603,
              -0.4519718,
              -0.6017716,
              0.01140719,
              0.4118989,
              -0.02862444,
              0.09028616,
              -0.03697375,
              -0.1085048,
              0.05730253,
              0.2847015,
              0.5369186,
              0.4618741,
              0.4696488,
              0.2429691,
              0.2455121,
              -0.1464846,
              -0.04148083,
              0.2063943,
              0.1203889,
              0.09363411,
              0.2049067
            ]
          },
          {
            "bias" : -0.4274437,
            "weights" : [
              -0.06588595,
              0.107421,
              -0.05706197,
              0.06811842,
              0.1167902,
              0.1082106,
              -0.100385,
              0.07374775,
              -0.003439252,
              0.02996342,
              0.08388144,
              -0.1043549,
              0.007255428,
              0.1082946,
              -0.09408385,
              -0.0697148,
              0.03935818,
              0.01687175,
              0.3426161,
              0.7275519,
              0.879624,
              0.9067358,
              0.44282,
              0.5200723,
              0.179216,
              -0.03494976,
              0.01343224,
              0.06438974,
              0.04966774,
              0.05593707,
              0.2028291,
              0.8689401,
              2.385233,
              1.796928,
              0.8580296,
              0.1719339,
              1.313498,
              0.39757,
              -0.9352166,
              -0.558892,
              -0.4037279,
              0.1046889,
              -0.009225717,
              0.03306955,
              0.2026046,
              0.4560807,
              0.5546582,
              0.2074187,
              0.05852725,
              -0.2147923,
              -0.7999524,
              -1.183333,
              -0.2020822,
              0.1268682,
              -0.1652878,
              -0.05226143,
              0.09506571,
              -0.1405641,
              -0.1835141,
              -0.9517757,
              -0.9235986,
              0.32846,
              0.814425,
              -0.9536238,
              -0.4181132,
              -0.04249898,
              0.01849747,
              -0.6764921,
              -0.5832624,
              -0.1472674,
              0.07938522,
              -0.2071493,
              -0.4943665,
              -1.884725,
              -1.583502,
              -3.751146,
              -2.762953,
              0.1061383,
              -0.8950815,
              0.5971042,
              -1.209742,
              -1.68493,
              -0.5745291,
              0.01361446,
              0.07030361,
              -0.2522133,
              -1.504146,
              -2.959107,
              -3.679982,
              0.1590428,
              1.451261,
              1.923794,
              -0.1566505,
              -0.8614911,
              -1.378528,
              0.6930611,
              0.6950477,
              0.09324671,
              -0.09055817,
              -0.1252037,
              0.004759273,
              0.6318668,
              1.653779,
              2.419539,
              -0.001467799,
              0.4819455,
              1.907585,
              1.036497,
              -0.09244019,
              0.8797871,
              0.4470284,
              0.09241032,
              -0.06057586,
              0.6746773,
              0.9679699,
              1.890873,
              2.447205,
              0.6282048,
              -0.501428,
              1.208987,
              0.06886774,
              1.685765,
              1.684524,
              1.554307,
              0.438812,
              0.1023168,
              0.07874931,
              0.7635447,
              1.082705,
              0.1353999,
              0.2796737,
              -0.2609795,
              -1.710217,
              0.4236742,
              0.3907003,
              -0.8229971,
              0.8793721,
              0.9325762,
              0.1892474,
              -0.0417644,
              -0.100204,
              0.4621428,
              0.557974,
              -0.18814,
              0.04135055,
              -0.2066776,
              0.6801523,
              -0.6671746,
              0.1016542,
              -1.1079,
              0.181392,
              0.5412625,
              0.1192813,
              -0.08315994,
              0.06478197,
              0.09188423,
              0.5093741,
              0.2414745,
              0.05345944,
              -0.9603359,
              -0.7973425,
              -0.4934689,
              -0.02454375,
              -0.7740907,
              -0.398405,
              -0.6720722,
              -0.1026363,
              -0.01835358,
              -0.08095345,
              -0.09694368,
              0.1265473,
              0.08589459,
              0.6429868,
              1.196749,
              0.08189697,
              -1.306776,
              -1.384712,
              -1.87498,
              -1.064245,
              -0.2903336,
              0.006449388,
              0.03383786,
              -0.02519136,
              -0.01614153,
              -0.05448321,
              -0.3880372,
              -0.3868527,
              -0.3524647,
              -0.8768577,
              -0.8717878,
              -0.3430528,
              -0.2351495,
              -0.1274962,
              -0.07130732,
              -0.0883361,
              -0.05378676
            ]
          },
          {
            "bias" : -0.9262568,
            "weights" : [
              -0.002200015,
              0.03959167,
              0.04414767,
              0.07362173,
              0.02428937,
              -0.07432279,
              -0.03277542,
              0.07375936,
              0.04585004,
              0.02575961,
              0.02074005,
              -0.04140984,
              -0.03710406,
              -0.09231084,
              -0.009211253,
              -0.03159832,
              -0.04494267,
              0.2927791,
              0.4861904,
              0.2117126,
              0.3507399,
              0.1104043,
              0.2826988,
              0.2104352,
              0.2433775,
              -0.05765657,
              0.06073805,
              0.1071709,
              -0.01918151,
              0.07003634,
              0.03881172,
              -0.3536665,
              -1.225377,
              -0.7458066,
              -1.025789,
              -1.563523,
              -0.5893106,
              0.2261321,
              1.061728,
              0.7137297,
              0.2551977,
              0.1378108,
              0.05998475,
              0.07973199,
              -0.08042724,
              -0.5454301,
              -0.5332337,
              -0.9745392,
              -0.7992726,
              0.3910326,
              0.5953716,
              0.4574818,
              -0.6322716,
              0.03435436,
              0.7213531,
              -0.08356337,
              -0.1001896,
              0.1084451,
              0.3752258,
              0.3922867,
              0.4149056,
              2.480062,
              2.057817,
              1.046785,
              -0.02192911,
              0.6240853,
              0.1874571,
              -0.001017769,
              0.6998481,
              0.1184493,
              0.06720544,
              0.07200615,
              0.9180201,
              1.6931,
              1.62249,
              1.816132,
              1.007652,
              -1.245055,
              -2.170656,
              -2.340931,
              -2.294617,
              -1.922837,
              -0.6793618,
              0.06047502,
              0.1145895,
              0.0788537,
              -0.3162114,
              -1.673004,
              -2.843071,
              -1.838244,
              -2.114718,
              -0.7361795,
              0.2610535,
              0.1009605,
              -0.1185946,
              -1.402734,
              -0.5233843,
              0.3270454,
              -0.12498,
              -0.2020323,
              -1.396091,
              -1.042602,
              -0.7568225,
              -0.05998879,
              0.2194369,
              0.1400968,
              0.6687962,
              1.252149,
              0.4484655,
              -1.094076,
              0.5682822,
              0.249859,
              0.07898799,
              -0.1028975,
              -0.106877,
              0.5423517,
              0.2908229,
              -0.3710608,
              -0.2654299,
              0.04120287,
              -0.04309706,
              -0.2619298,
              0.03864494,
              -0.5747656,
              0.8837456,
              0.280693,
              -0.1105681,
              0.04977129,
              0.4839771,
              0.4665741,
              0.1880389,
              -0.2247242,
              0.127272,
              0.6407099,
              0.458151,
              0.3493047,
              -0.3786983,
              -0.7191901,
              0.5655239,
              0.05145231,
              -0.06181294,
              -0.08140158,
              -0.01431959,
              0.09412727,
              0.4112145,
              0.1908193,
              -0.5803029,
              0.3088834,
              0.4021227,
              -0.05308219,
              0.3735174,
              1.016774,
              0.3932638,
              0.05741579,
              0.00512488,
              0.01495331,
              -0.01770459,
              -0.3557802,
              -0.1226857,
              -0.5373242,
              -0.792243,
              -0.7955342,
              0.4195441,
              -0.2495182,
              0.1922053,
              0.1474359,
              0.1574419,
              0.0538937,
              -0.115002,
              -0.05652924,
              0.0395471,
              -0.1981866,
              0.1008658,
              -0.1332362,
              0.3994767,
              0.9184245,
              1.921088,
              1.416927,
              0.8117353,
              0.03097021,
              0.1695393,
              -0.1161831,
              -0.06331657,
              -0.01971176,
              0.004835172,
              -0.0952538,
              0.06671458,
              0.01227579,
              0.2761289,
              0.380596,
              0.2829262,
              0.2978509,
              0.04489108,
              0.1820114,
              0.1356522,
              0.2058577
            ]
          },
          {
            "bias" : 0.2666,
            "weights" : [
              -0.04796698,
              -0.05080952,
              -0.08064759,
              -0.07484008,
              0.05475411,
              -0.01708802,
              -0.02284919,
              -0.0558855,
              0.04153812,
              0.01616309,
              -0.0801842,
              0.07778596,
              -0.1080969,
              0.1012917,
              -0.05974277,
              -0.0304244,
              -0.07431976,
              -0.0823876,
              -0.06785985,
              -0.2099032,
              -0.01864234,
              0.6920169,
              0.7447623,
              1.037634,
              0.5371889,
              0.3556081,
              0.1155822,
              -0.05402739,
              0.1205496,
              -0.03090864,
              -0.03298626,
              0.2971305,
              0.5472645,
              -0.008173018,
              -0.2820496,
              0.3178764,
              0.9902962,
              0.8874907,
              0.5391065,
              0.1626054,
              -0.138878,
              -0.08687512,
              0.02193448,
              0.06031181,
              0.3083687,
              1.63091,
              1.095175,
              -0.0468189,
              -0.3386696,
              -1.249261,
              0.3236431,
              -0.05738116,
              -0.35943,
              1.121324,
              0.4700671,
              0.0147644,
              -0.0235948,
              0.04913177,
              0.9147714,
              1.343507,
              1.356631,
              0.6980204,
              0.3692349,
              -1.556329,
              -0.3161418,
              0.6496167,
              0.1058623,
              0.9205847,
              0.6242688,
              -0.09934141,
              0.04121881,
              -0.05575332,
              0.2705062,
              -1.172837,
              -0.3830835,
              -0.2531369,
              -0.1971336,
              -2.224353,
              0.6742449,
              -0.04548521,
              0.1365933,
              0.3265964,
              -0.2481499,
              -0.1734708,
              0.1156617,
              0.1553152,
              -0.4664095,
              -0.2889135,
              -0.7345411,
              0.173827,
              1.370309,
              -1.429772,
              0.7960937,
              0.1082691,
              -0.427868,
              0.4220797,
              -0.4515853,
              -0.1064975,
              0.08281745,
              -0.1569361,
              -0.3481854,
              -0.8307766,
              -0.1519009,
              1.016674,
              0.433395,
              -0.1359347,
              -0.5832773,
              -0.6880992,
              0.5152117,
              0.8511889,
              -0.6638529,
              -0.1655595,
              0.04717209,
              -0.3815853,
              -0.8070703,
              -1.604403,
              -0.47658,
              0.3262746,
              -0.6669546,
              -0.5058168,
              0.1058399,
              1.461789,
              1.13804,
              0.8915995,
              -0.3587895,
              -0.2845148,
              -0.02703109,
              -0.05700783,
              -0.1298129,
              0.1143084,
              0.8456408,
              -0.07016272,
              0.03120615,
              -1.004156,
              0.9893281,
              -0.1619382,
              0.221411,
              0.4333152,
              -0.2129531,
              -0.1515001,
              -0.09441902,
              -0.03640033,
              -0.4709781,
              0.7082711,
              2.197658,
              1.233809,
              0.6918375,
              -0.481746,
              0.5546439,
              0.556246,
              0.1279768,
              -0.2647742,
              -0.2149679,
              -0.07239138,
              -0.01155147,
              -0.005249231,
              -0.1672912,
              0.5281016,
              0.7723678,
              0.3381852,
              -0.1242227,
              -0.3488112,
              -0.8353226,
              -0.6284289,
              -0.4710927,
              -1.232011,
              -0.3462862,
              0.1080367,
              0.08098263,
              -0.06319065,
              0.252323,
              0.6689853,
              1.2552,
              1.481282,
              0.7499036,
              -0.7193002,
              -1.079875,
              -1.178342,
              -0.8443288,
              -0.2719921,
              0.0547108,
              0.02491697,
              -0.1004167,
              0.0138827,
              0.04816285,
              -0.1340199,
              -0.04562545,
              -0.0408438,
              0.003729132,
              -0.1442951,
              -0.0333948,
              -0.03777421,
              -0.03710688,
              0.0444532,
              -0.1033297,
              -0.1514725
            ]
          },
          {
            "bias" : -0.1756063,
            "weights" : [
              -0.1141152,
              -0.09976087,
              0.00992657,
              -0.0533482,
              -0.008010632,
              -0.1138063,
              0.05612154,
              0.03721359,
              -0.1401393,
              -0.04562226,
              -0.1156488,
              0.02871631,
              -0.1076049,
              0.04142606,
              0.09110067,
              -0.06653253,
              0.05136247,
              -0.1206565,
              -0.3559879,
              -0.3138627,
              -0.4987522,
              0.1036426,
              0.1199653,
              -0.5172498,
              0.2044072,
              0.2344438,
              -0.009294629,
              0.008883444,
              -0.1061761,
              0.1064439,
              -0.22004,
              0.1805044,
              -0.5472885,
              -0.3768848,
              -0.380364,
              -0.6369584,
              -0.9992139,
              -0.3617775,
              0.2685979,
              0.007835277,
              -0.2724442,
              -0.03330985,
              -0.1005856,
              0.2585669,
              0.1960286,
              -0.04546408,
              -1.270562,
              -0.09718328,
              0.09433702,
              -0.2689433,
              -0.3648912,
              -0.1804832,
              -0.4237286,
              -0.1384092,
              -0.3175126,
              -0.01045896,
              0.05249654,
              0.1228132,
              0.2614238,
              0.2101489,
              -0.4679224,
              0.02549319,
              -1.048665,
              -0.7601573,
              0.3108467,
              0.04189096,
              -0.2624642,
              -0.487446,
              -0.4248218,
              -0.08630948,
              -0.02317392,
              -0.1193783,
              0.1344071,
              -0.3963464,
              0.08356912,
              0.00621315,
              -0.2251086,
              -3.042571,
              -0.327756,
              2.156937,
              -0.05512658,
              1.04776,
              -0.232725,
              -0.08358502,
              -0.0002960319,
              -0.108583,
              0.5754505,
              0.3097972,
              -0.491794,
              -0.797998,
              1.430442,
              -5.03656,
              -0.8127615,
              0.550331,
              0.2634737,
              1.277593,
              0.2377021,
              -0.1536095,
              0.06094121,
              -0.09142213,
              0.4511546,
              0.7962723,
              0.4096478,
              0.5553027,
              0.1505042,
              -5.947515,
              2.791677,
              1.786529,
              0.5322909,
              -0.1791844,
              0.0558234,
              0.03403169,
              -0.06259045,
              -0.4085483,
              -0.1324748,
              0.5758976,
              0.3688252,
              -0.9588023,
              -2.479962,
              -1.481075,
              3.180903,
              0.2724438,
              1.067763,
              -0.2222263,
              0.01545011,
              -0.01984802,
              0.001893862,
              -0.3656742,
              -0.6391779,
              0.5066192,
              0.8173682,
              -0.7840249,
              -1.328178,
              1.192336,
              0.9229972,
              0.01216161,
              0.3711717,
              0.139717,
              -0.1047898,
              0.04223549,
              0.09219103,
              0.1513637,
              0.3250548,
              0.3632553,
              -1.710263,
              0.09126911,
              0.5945214,
              0.2220484,
              0.5684176,
              0.893892,
              0.4831126,
              -0.1552848,
              0.07025968,
              -0.002470043,
              -0.06355689,
              -0.04538592,
              -0.1772477,
              0.856266,
              -0.1697857,
              -0.1817135,
              -0.0746374,
              0.1059571,
              0.04750618,
              -0.5653307,
              0.1982792,
              0.2476979,
              -0.1591718,
              0.05607593,
              -0.03785784,
              -0.0504249,
              0.05628096,
              -0.364719,
              -0.3806807,
              0.2508175,
              0.3389267,
              0.2683165,
              0.5969895,
              -0.3123071,
              0.1032981,
              -0.3009069,
              -0.1048563,
              -0.08516286,
              0.04830137,
              -0.05830792,
              0.01155179,
              0.1237824,
              -0.02887761,
              -0.01258919,
              0.01044089,
              -0.03291999,
              -0.1809205,
              -0.04860444,
              -0.005732085,
              -0.03743238,
              0.1020724,
              -0.1200648
            ]
          },
          {
            "bias" : -0.8065217,
            "weights" : [
              -0.05085734,
              0.1098199,
              0.105153,
              -0.09957883,
              0.07516946,
              -0.1062284,
              0.1061749,
              0.1312341,
              0.01029406,
              -0.08062229,
              0.1231883,
              0.08632899,
              0.07338231,
              -0.1044032,
              0.04477967,
              -0.08283745,
              0.06884693,
              0.0008995531,
              0.1250798,
              0.05257328,
              0.07799393,
              0.1604825,
              0.284134,
              0.08565173,
              0.08888978,
              -0.02383003,
              0.06147318,
              -0.008238991,
              0.08925665,
              -0.09631869,
              0.05728832,
              -0.1027771,
              -0.4201998,
              0.1001118,
              0.5768408,
              1.827298,
              2.14147,
              1.613433,
              0.9041677,
              -0.07539822,
              0.2153161,
              0.09380132,
              -0.06887172,
              0.03909201,
              0.1112022,
              -0.4945753,
              -0.9756674,
              0.2632199,
              0.5892128,
              1.270061,
              -0.2328441,
              0.2779733,
              0.3781171,
              0.5953737,
              0.162081,
              0.06480001,
              0.1127898,
              0.1558773,
              0.2969393,
              0.01331719,
              0.223242,
              -0.1552552,
              0.5404717,
              0.7530984,
              1.178121,
              -0.3826505,
              0.5848495,
              0.1049149,
              0.7206816,
              0.2495482,
              0.06548163,
              -0.0431426,
              0.4195698,
              -0.0290689,
              -0.5239731,
              -1.29157,
              -1.452584,
              0.223448,
              -1.59007,
              -0.9687073,
              0.4926598,
              1.906906,
              1.989835,
              0.2791854,
              -0.1106081,
              -0.174235,
              -0.4406804,
              -0.6672832,
              -0.8271565,
              -1.440434,
              1.629265,
              -0.4646031,
              -2.106865,
              -0.85692,
              -0.7577246,
              0.7737325,
              0.8992645,
              0.1140681,
              0.01047718,
              -0.1899082,
              0.03162635,
              -0.6865472,
              -0.2246206,
              0.4783529,
              0.5611243,
              -1.801073,
              -1.405539,
              -2.373963,
              -2.386226,
              -0.6468527,
              0.05737985,
              0.06119898,
              0.07247174,
              0.2972216,
              0.3834148,
              -1.1339,
              -0.611004,
              0.1130871,
              1.449381,
              -2.366681,
              -1.338875,
              -1.360532,
              -0.8148709,
              0.4144828,
              0.4463856,
              -0.04722625,
              0.0300418,
              0.076648,
              0.8849773,
              2.174577,
              1.656561,
              0.08554723,
              -0.895835,
              -0.6823502,
              1.025201,
              1.574649,
              2.045025,
              2.824178,
              0.3465685,
              -0.05802221,
              0.02867753,
              0.2705852,
              1.412365,
              3.198689,
              3.047275,
              2.680263,
              2.92833,
              2.265699,
              0.9992151,
              2.744711,
              2.6717,
              1.91518,
              0.1996446,
              -0.0428553,
              0.06002233,
              0.08129637,
              0.9046567,
              -0.5272841,
              -0.04708331,
              0.6869477,
              1.760776,
              1.586603,
              1.725023,
              0.7776966,
              0.5103259,
              0.4739398,
              0.05134771,
              0.01275171,
              0.02277568,
              0.09185714,
              -0.7296784,
              -0.8489133,
              0.6882191,
              0.9177047,
              0.4216375,
              1.308964,
              1.378035,
              0.3560647,
              -0.9762015,
              -0.2104246,
              0.01319964,
              0.09905353,
              0.08475961,
              0.03210779,
              0.06359124,
              -0.1415877,
              -0.2494901,
              -0.01085386,
              0.1162631,
              -0.3409111,
              -0.1870035,
              -0.3567798,
              -0.3289687,
              -0.2691765,
              -0.09202106,
              -0.1301639
            ]
          },
          {
            "bias" : -0.444002,
            "weights" : [
              0.006375179,
              0.02770968,
              0.1135687,
              0.08765269,
              -0.07089821,
              -0.09451339,
              -0.09261724,
              -0.09035816,
              0.06696002,
              -0.03419668,
              -0.1493145,
              0.08199861,
              -0.004415508,
              -0.1118697,
              0.03189851,
              0.07418362,
              -0.02122798,
              -0.206173,
              -0.5507975,
              -0.5708848,
              -0.779767,
              -0.8790394,
              -0.07922009,
              0.1472657,
              -0.3060347,
              -0.4468575,
              -0.008202551,
              0.0472808,
              -0.02682431,
              -0.02745952,
              -0.06754556,
              -0.3612061,
              -1.124383,
              -0.136066,
              0.8221675,
              0.2128485,
              -0.7501199,
              -0.6553164,
              -0.5854816,
              0.1600533,
              0.4466235,
              -0.01251947,
              -0.01667472,
              0.1584437,
              0.5491639,
              0.8996526,
              1.361794,
              1.459625,
              1.529598,
              0.1379907,
              1.604137,
              1.091172,
              -0.5985986,
              0.9252933,
              0.8038883,
              0.1156949,
              0.03176156,
              0.2757674,
              0.9638835,
              2.255189,
              2.046897,
              -0.7723071,
              -0.3593183,
              0.2902818,
              2.231486,
              1.188381,
              0.6096082,
              1.491083,
              1.329345,
              0.2159216,
              0.08676387,
              0.3722113,
              0.6143094,
              1.163406,
              0.1656919,
              -1.060347,
              0.5078363,
              0.2387435,
              1.590048,
              -1.237428,
              1.243486,
              2.129305,
              1.617606,
              0.08716515,
              -0.07105733,
              0.1308375,
              0.1438774,
              -0.1602193,
              -0.128472,
              0.8634428,
              0.05153337,
              -1.404007,
              -2.104579,
              0.3527035,
              1.972567,
              0.9366398,
              0.2991238,
              -0.09730807,
              0.008181819,
              0.004310655,
              1.150982,
              0.5636393,
              -1.10061,
              0.7185924,
              0.535427,
              -0.3160925,
              -1.360753,
              3.758654,
              1.669463,
              1.013295,
              -0.195164,
              -0.04577304,
              -0.004799588,
              -0.03908404,
              0.8701949,
              0.3947645,
              -2.035033,
              -1.914703,
              -0.4283967,
              -0.1810507,
              1.965102,
              2.613368,
              0.822866,
              0.4437854,
              -0.07158404,
              -0.1720288,
              0.04463156,
              -0.0234818,
              1.235522,
              0.974659,
              -0.5315956,
              -0.4547294,
              -1.424598,
              -0.903434,
              0.5446025,
              0.2118001,
              -0.5329552,
              -1.163708,
              -0.331934,
              0.02893543,
              0.1101343,
              -0.006036977,
              0.4218062,
              0.6127162,
              -0.7862456,
              -0.7889688,
              -1.488632,
              -0.5592799,
              -0.9963349,
              -1.028336,
              -1.650073,
              -1.096214,
              -0.4706335,
              -0.04297381,
              -0.0851422,
              0.1046541,
              0.0118713,
              0.9594819,
              0.5415808,
              1.070468,
              0.2151013,
              0.8971161,
              -0.64129,
              -0.8422171,
              -1.417399,
              -0.3050714,
              -0.07332799,
              0.1082231,
              -0.02218889,
              -0.08673579,
              0.2798433,
              0.6412783,
              0.678723,
              0.9507364,
              1.220879,
              1.009542,
              -0.4563733,
              0.6178013,
              -0.09497485,
              -0.01744923,
              0.107307,
              0.1080343,
              -0.07134293,
              0.09563063,
              -0.004524941,
              -0.08271673,
              -0.1550326,
              -0.17284,
              -0.3954282,
              -0.5161481,
              -0.480826,
              -0.05030937,
              0.1568621,
              0.002179012,
              -0.05081143,
              -0.02698637
            ]
          },
          {
            "bias" : -0.8369818,
            "weights" : [
              0.0208455,
              0.009584129,
              -0.1212762,
              0.0008211059,
              0.09701969,
              -0.008938252,
              -0.09925692,
              0.07262544,
              0.1225391,
              -0.01515119,
              -0.04958328,
              0.007869274,
              0.01192616,
              0.09926462,
              -0.08023501,
              0.07463896,
              -0.03355773,
              -0.006996041,
              -0.001432081,
              -0.126184,
              -0.4839289,
              -0.5478327,
              -0.471782,
              0.2673153,
              0.1033024,
              -0.07078376,
              -0.08010004,
              0.008748852,
              0.005491125,
              -0.02668472,
              -0.1391471,
              -0.1704137,
              -0.8096768,
              -1.263974,
              -0.5492142,
              -0.07788053,
              0.2882285,
              0.285168,
              0.1651862,
              0.4527464,
              0.2763653,
              -0.05938314,
              -0.1152961,
              -0.143347,
              -0.1928713,
              -0.9783977,
              -1.609441,
              -0.5132869,
              -0.1438788,
              -0.8214104,
              -1.249686,
              -0.8329304,
              -1.577128,
              0.3104033,
              0.6342846,
              0.1000402,
              -0.006011989,
              -0.2578796,
              -0.6736458,
              -1.300982,
              -0.4742326,
              0.5432767,
              -0.05234004,
              0.3100882,
              -0.8322167,
              0.182302,
              0.7010735,
              0.6740159,
              1.526514,
              0.05215295,
              0.009152031,
              -0.4401293,
              -1.540956,
              -2.441948,
              -0.1025674,
              0.9855356,
              0.5342351,
              -0.6819407,
              -1.220482,
              0.1710132,
              0.9124175,
              1.86747,
              1.594653,
              0.15841,
              -0.09773465,
              -0.328883,
              -1.386378,
              -1.491335,
              0.2641563,
              0.3029759,
              2.066687,
              2.581124,
              -0.5435038,
              -1.197989,
              0.871518,
              0.2685432,
              -0.356842,
              -0.2756822,
              -0.07520946,
              -0.1735418,
              -0.8893582,
              -1.224044,
              -0.9447089,
              0.2832675,
              1.448625,
              1.83087,
              0.9163538,
              -1.694261,
              -1.343249,
              -2.094667,
              -1.02186,
              -0.2301318,
              0.07158937,
              -0.20508,
              -0.5166494,
              -0.7292269,
              -1.638395,
              -0.05463201,
              0.7875493,
              0.7301021,
              -0.253102,
              -1.252064,
              -1.520018,
              -1.62727,
              -0.668736,
              -0.08059474,
              -0.1131294,
              -0.1903108,
              -0.2119872,
              -0.7024024,
              -0.7540455,
              -1.887914,
              -0.7204312,
              0.260473,
              0.07140674,
              -1.031761,
              -1.192722,
              -1.135744,
              -0.2083884,
              0.02395013,
              0.08396932,
              -0.1564878,
              -0.3549768,
              0.9407181,
              0.1749294,
              0.1805516,
              -0.8020234,
              0.4325728,
              0.7356279,
              -0.3600073,
              -1.394765,
              -0.4292668,
              0.1223429,
              0.01457051,
              -0.03713555,
              0.01507148,
              -0.6311817,
              -0.6119151,
              1.67232,
              0.4394952,
              0.1192663,
              -0.0876037,
              0.8161258,
              -1.733326,
              -1.465692,
              -0.4469566,
              -0.1452445,
              0.1135197,
              0.1030339,
              -0.005037881,
              -0.6207262,
              -0.9124866,
              -0.3443729,
              -0.5307351,
              -1.372681,
              -0.4651684,
              0.1623873,
              -0.4664065,
              -0.1375154,
              -0.03732825,
              -0.02600702,
              -0.07499631,
              0.02254181,
              -0.1189231,
              -0.04809701,
              0.07548366,
              -0.07647432,
              0.03125301,
              -0.4019227,
              0.2224541,
              0.07985605,
              0.07180229,
              0.05688879,
              -0.1339083,
              -0.0005474247,
              -0.02055287
            ]
          },
          {
            "bias" : -0.1068594,
            "weights" : [
              0.01406804,
              -0.1091806,
              -0.01518325,
              0.001107352,
              -0.06191457,
              -0.0366413,
              0.08866443,
              0.2390591,
              -0.03015631,
              -0.05036372,
              0.04226773,
              0.1109732,
              -0.114406,
              -0.002539016,
              -0.004509164,
              -0.06554554,
              -0.01624266,
              -0.06349445,
              0.1251686,
              0.0384065,
              -0.3831711,
              0.5695612,
              0.4157944,
              0.2657242,
              0.00688366,
              0.1587349,
              -0.01317276,
              0.1100615,
              -0.04369619,
              0.07906101,
              -0.06596967,
              -0.2424597,
              -0.6436238,
              -1.853892,
              -1.362383,
              0.5091718,
              0.4512982,
              -0.1920224,
              -0.4711652,
              -0.1463977,
              -0.2372923,
              0.04045798,
              0.08574358,
              -0.01134127,
              -0.1365875,
              -0.5657904,
              -1.531273,
              -0.997204,
              0.8233424,
              0.8861291,
              -0.7819864,
              -1.593972,
              -0.9017959,
              -0.2881345,
              -0.1566662,
              -0.07778005,
              -0.1071181,
              -0.1773972,
              -0.3144738,
              -0.9444954,
              0.5954007,
              -1.033199,
              0.4539686,
              1.466446,
              -1.673917,
              -0.6098572,
              -0.4786019,
              -0.1799476,
              -0.08209741,
              -0.01955772,
              -0.07018574,
              -0.1406759,
              -0.5416669,
              -0.5484061,
              1.096261,
              -1.072985,
              0.293977,
              0.1497306,
              -1.406995,
              -0.5462004,
              0.5046925,
              0.8894657,
              0.09568807,
              0.0280868,
              -0.01715089,
              0.01041077,
              -0.01995903,
              0.840225,
              1.909726,
              0.3232759,
              -2.889077,
              -1.00379,
              -1.735835,
              -1.677558,
              -0.9386457,
              1.812572,
              0.4217726,
              -0.1027716,
              -0.08053216,
              -0.1060419,
              0.5739937,
              0.8856364,
